{"learner":{"attributes":{"best_iteration":"99","best_score":"5.501649716861785"},"feature_names":[],"feature_types":[],"gradient_booster":{"model":{"gbtree_model_param":{"num_parallel_tree":"1","num_trees":"100"},"iteration_indptr":[0,1,2,3,4,5,6,7,8,9,10,11,12,13,14,15,16,17,18,19,20,21,22,23,24,25,26,27,28,29,30,31,32,33,34,35,36,37,38,39,40,41,42,43,44,45,46,47,48,49,50,51,52,53,54,55,56,57,58,59,60,61,62,63,64,65,66,67,68,69,70,71,72,73,74,75,76,77,78,79,80,81,82,83,84,85,86,87,88,89,90,91,92,93,94,95,96,97,98,99,100],"tree_info":[0,0,0,0,0,0,0,0,0,0,0,0,0,0,0,0,0,0,0,0,0,0,0,0,0,0,0,0,0,0,0,0,0,0,0,0,0,0,0,0,0,0,0,0,0,0,0,0,0,0,0,0,0,0,0,0,0,0,0,0,0,0,0,0,0,0,0,0,0,0,0,0,0,0,0,0,0,0,0,0,0,0,0,0,0,0,0,0,0,0,0,0,0,0,0,0,0,0,0,0],"trees":[{"base_weights":[-1.1178431E-2,-3.6596618E0,8.146527E0,-5.232198E0,-5.933174E-1,5.8723125E0,1.7622293E1,8.8202536E-1,-1.0418813E0,-3.1816202E-1,9.223475E-2,7.0950735E-1,1.5366901E0,2.517711E0,4.04304E0],"categories":[],"categories_nodes":[],"categories_segments":[],"categories_sizes":[],"default_left":[0,0,0,0,0,0,0,0,0,0,0,0,0,0,0],"id":0,"left_children":[1,3,5,7,9,11,13,-1,-1,-1,-1,-1,-1,-1,-1],"loss_changes":[1.0883275E6,1.218305E5,2.4350425E5,1.593059E5,1.2505072E4,4.907628E4,3.7696062E4,0E0,0E0,0E0,0E0,0E0,0E0,0E0,0E0],"parents":[2147483647,0,0,1,1,2,2,3,3,4,4,5,5,6,6],"right_children":[2,4,6,8,10,12,14,-1,-1,-1,-1,-1,-1,-1,-1],"split_conditions":[2.68E0,1.68E0,7.04E0,1.4E-1,2.08E0,4.3E0,1.116E1,8.8202536E-1,-1.0418813E0,-3.1816202E-1,9.223475E-2,7.0950735E-1,1.5366901E0,2.517711E0,4.04304E0],"split_indices":[5092,5092,5092,5092,5092,5092,5092,0,0,0,0,0,0,0,0],"split_type":[0,0,0,0,0,0,0,0,0,0,0,0,0,0,0],"sum_hessian":[3.6566E4,2.5266E4,1.13E4,1.6701E4,8.565E3,9.113E3,2.187E3,1.345E3,1.5356E4,4.024E3,4.541E3,5.963E3,3.15E3,1.514E3,6.73E2],"tree_param":{"num_deleted":"0","num_feature":"5093","num_nodes":"15","size_leaf_vector":"1"}},{"base_weights":[-1.2140615E-2,-2.760081E0,7.5293784E0,-4.5275164E0,-3.1702885E-1,5.494626E0,1.5039392E1,6.888335E-1,-9.0849686E-1,-2.2819757E-1,2.3000915E-1,7.3577327E-1,1.4599696E0,2.2401328E0,3.3732696E0],"categories":[],"categories_nodes":[],"categories_segments":[],"categories_sizes":[],"default_left":[0,0,0,0,0,0,0,0,0,0,0,0,0,0,0],"id":1,"left_children":[1,3,5,7,9,11,13,-1,-1,-1,-1,-1,-1,-1,-1],"loss_changes":[7.579081E5,1.1574194E5,1.4924138E5,1.1115466E5,1.9383992E4,2.7651469E4,1.8435625E4,0E0,0E0,0E0,0E0,0E0,0E0,0E0,0E0],"parents":[2147483647,0,0,1,1,2,2,3,3,4,4,5,5,6,6],"right_children":[2,4,6,8,10,12,14,-1,-1,-1,-1,-1,-1,-1,-1],"split_conditions":[2.96E0,1.58E0,7.23E0,1.4E-1,2.3E0,5.15E0,1.219E1,6.888335E-1,-9.0849686E-1,-2.2819757E-1,2.3000915E-1,7.3577327E-1,1.4599696E0,2.2401328E0,3.3732696E0],"split_indices":[5092,5092,5092,5092,5092,5092,5092,0,0,0,0,0,0,0,0],"split_type":[0,0,0,0,0,0,0,0,0,0,0,0,0,0,0],"sum_hessian":[3.6572E4,2.6805E4,9.767E3,1.5553E4,1.1252E4,7.685E3,2.082E3,1.373E3,1.418E4,6.968E3,4.284E3,5.609E3,2.076E3,1.514E3,5.68E2],"tree_param":{"num_deleted":"0","num_feature":"5093","num_nodes":"15","size_leaf_vector":"1"}},{"base_weights":[1.6843572E-2,-2.6288192E0,5.5429325E0,-4.0447464E0,-9.295521E-1,4.164497E0,1.3162422E1,6.210808E-1,-8.276602E-1,-2.8857836E-1,1.1534301E-2,4.681119E-1,1.1313088E0,1.9640089E0,2.8605547E0],"categories":[],"categories_nodes":[],"categories_segments":[],"categories_sizes":[],"default_left":[0,0,0,0,0,0,0,0,0,0,0,0,0,0,0],"id":2,"left_children":[1,3,5,7,9,11,13,-1,-1,-1,-1,-1,-1,-1,-1],"loss_changes":[5.353495E5,5.9577594E4,1.2450684E5,8.723117E4,8.677494E3,3.5340844E4,1.0608281E4,0E0,0E0,0E0,0E0,0E0,0E0,0E0,0E0],"parents":[2147483647,0,0,1,1,2,2,3,3,4,4,5,5,6,6],"right_children":[2,4,6,8,10,12,14,-1,-1,-1,-1,-1,-1,-1,-1],"split_conditions":[2.59E0,1.43E0,7.65E0,1.4E-1,1.98E0,4.3E0,1.219E1,6.210808E-1,-8.276602E-1,-2.8857836E-1,1.1534301E-2,4.681119E-1,1.1313088E0,1.9640089E0,2.8605547E0],"split_indices":[5092,5092,5092,5092,5092,5092,5092,0,0,0,0,0,0,0,0],"split_type":[0,0,0,0,0,0,0,0,0,0,0,0,0,0,0],"sum_hessian":[3.6617E4,2.4762E4,1.1855E4,1.3507E4,1.1255E4,1.0039E4,1.816E3,1.324E3,1.2183E4,6.342E3,4.913E3,6.439E3,3.6E3,1.275E3,5.41E2],"tree_param":{"num_deleted":"0","num_feature":"5093","num_nodes":"15","size_leaf_vector":"1"}},{"base_weights":[7.111774E-3,-1.9530267E0,5.1118455E0,-3.5275028E0,-6.199216E-1,4.017363E0,1.1324504E1,4.8708695E-1,-7.324983E-1,-2.5105596E-1,6.98478E-2,-7.84661E-1,7.2906506E-1,1.640544E0,2.3994606E0],"categories":[],"categories_nodes":[],"categories_segments":[],"categories_sizes":[],"default_left":[0,0,0,0,0,0,0,0,0,0,0,0,0,0,0],"id":3,"left_children":[1,3,5,7,9,11,13,-1,-1,-1,-1,-1,-1,-1,-1],"loss_changes":[3.6746188E5,5.56949E4,6.927641E4,6.180503E4,1.2768975E4,2.1238438E4,7.0979062E3,0E0,0E0,0E0,0E0,0E0,0E0,0E0,0E0],"parents":[2147483647,0,0,1,1,2,2,3,3,4,4,5,5,6,6],"right_children":[2,4,6,8,10,12,14,-1,-1,-1,-1,-1,-1,-1,-1],"split_conditions":[2.9E0,1.35E0,8.15E0,1.4E-1,2E0,2.00001E0,1.219E1,4.8708695E-1,-7.324983E-1,-2.5105596E-1,6.98478E-2,-7.84661E-1,7.2906506E-1,1.640544E0,2.3994606E0],"split_indices":[5092,5092,5092,5092,5092,4561,5092,0,0,0,0,0,0,0,0],"split_type":[0,0,0,0,0,0,0,0,0,0,0,0,0,0,0],"sum_hessian":[3.6724E4,2.6535E4,1.0189E4,1.2166E4,1.4369E4,8.663E3,1.526E3,1.342E3,1.0824E4,7.833E3,6.536E3,2.75E2,8.388E3,9.65E2,5.61E2],"tree_param":{"num_deleted":"0","num_feature":"5093","num_nodes":"15","size_leaf_vector":"1"}},{"base_weights":[-2.944991E-2,-1.5018023E0,4.508416E0,-3.0401158E0,-4.8433846E-1,2.6155856E0,7.1952553E0,4.6943387E-1,-6.5206313E-1,-1.9417992E-1,1.1241388E-1,-6.4502794E-1,5.0265205E-1,-7.320507E-1,1.2866335E0],"categories":[],"categories_nodes":[],"categories_segments":[],"categories_sizes":[],"default_left":[0,0,0,0,0,0,0,0,0,0,0,0,0,0,0],"id":4,"left_children":[1,3,5,7,9,11,13,-1,-1,-1,-1,-1,-1,-1,-1],"loss_changes":[2.4489183E5,4.3314316E4,4.566239E4,5.162057E4,1.2637491E4,1.1827738E4,1.687364E4,0E0,0E0,0E0,0E0,0E0,0E0,0E0,0E0],"parents":[2147483647,0,0,1,1,2,2,3,3,4,4,5,5,6,6],"right_children":[2,4,6,8,10,12,14,-1,-1,-1,-1,-1,-1,-1,-1],"split_conditions":[3.14E0,1.28E0,5.5E0,1.4E-1,2.18E0,2.00001E0,2.00001E0,4.6943387E-1,-6.5206313E-1,-1.9417992E-1,1.1241388E-1,-6.4502794E-1,5.0265205E-1,-7.320507E-1,1.2866335E0],"split_indices":[5092,5092,5092,5092,5092,4561,4019,0,0,0,0,0,0,0,0],"split_type":[0,0,0,0,0,0,0,0,0,0,0,0,0,0,0],"sum_hessian":[3.6653E4,2.7674E4,8.979E3,1.1017E4,1.6657E4,5.268E3,3.711E3,1.343E3,9.674E3,1.0568E4,6.089E3,2.72E2,4.996E3,1.23E2,3.588E3],"tree_param":{"num_deleted":"0","num_feature":"5093","num_nodes":"15","size_leaf_vector":"1"}},{"base_weights":[-2.994202E-3,-1.3085216E0,3.7745755E0,-2.818131E0,-5.470363E-1,2.9206324E0,9.06188E0,3.3312845E-1,-6.125163E-1,-1.6242856E-1,1.3893971E-1,-5.4728913E-1,5.3112596E-1,1.3714173E0,1.8704966E0],"categories":[],"categories_nodes":[],"categories_segments":[],"categories_sizes":[],"default_left":[0,0,0,0,0,0,0,0,0,0,0,0,0,0,0],"id":5,"left_children":[1,3,5,7,9,11,13,-1,-1,-1,-1,-1,-1,-1,-1],"loss_changes":[1.8092072E5,3.133961E4,4.25375E4,3.4771273E4,1.0183205E4,1.0604734E4,2.5009688E3,0E0,0E0,0E0,0E0,0E0,0E0,0E0,0E0],"parents":[2147483647,0,0,1,1,2,2,3,3,4,4,5,5,6,6],"right_children":[2,4,6,8,10,12,14,-1,-1,-1,-1,-1,-1,-1,-1],"split_conditions":[3.08E0,1.15E0,8.83E0,1.4E-1,2.38E0,2.00001E0,1.369E1,3.3312845E-1,-6.125163E-1,-1.6242856E-1,1.3893971E-1,-5.4728913E-1,5.3112596E-1,1.3714173E0,1.8704966E0],"split_indices":[5092,5092,5092,5092,5092,4561,5092,0,0,0,0,0,0,0,0],"split_type":[0,0,0,0,0,0,0,0,0,0,0,0,0,0,0],"sum_hessian":[3.6685E4,2.7263E4,9.422E3,9.141E3,1.8122E4,8.112E3,1.31E3,1.303E3,7.838E3,1.3931E4,4.191E3,2.71E2,7.841E3,8.78E2,4.32E2],"tree_param":{"num_deleted":"0","num_feature":"5093","num_nodes":"15","size_leaf_vector":"1"}},{"base_weights":[-1.1463972E-2,-8.5065913E-1,3.9397898E0,-1.6536661E0,4.7647464E-1,3.247533E0,6.797326E0,2.9703295E-1,-3.2408118E-1,-4.921252E-1,9.3518704E-2,-6.9841844E-1,5.7893944E-1,-3.9932933E0,1.1607673E0],"categories":[],"categories_nodes":[],"categories_segments":[],"categories_sizes":[],"default_left":[0,0,0,0,0,0,0,0,0,0,0,0,0,0,0],"id":6,"left_children":[1,3,5,7,9,11,13,-1,-1,-1,-1,-1,-1,-1,-1],"loss_changes":[1.2154018E5,3.2219543E4,1.2698734E4,1.6561527E4,2.8967244E3,6.389125E3,1.9213516E3,0E0,0E0,0E0,0E0,0E0,0E0,0E0,0E0],"parents":[2147483647,0,0,1,1,2,2,3,3,4,4,5,5,6,6],"right_children":[2,4,6,8,10,12,14,-1,-1,-1,-1,-1,-1,-1,-1],"split_conditions":[3.83E0,1.87E0,8.83E0,1.4E-1,2.00001E0,2.00001E0,2.00001E0,2.9703295E-1,-3.2408118E-1,-4.921252E-1,9.3518704E-2,-6.9841844E-1,5.7893944E-1,-3.9932933E0,1.1607673E0],"split_indices":[5092,5092,5092,5092,4561,4019,4398,0,0,0,0,0,0,0,0],"split_type":[0,0,0,0,0,0,0,0,0,0,0,0,0,0,0],"sum_hessian":[3.6654E4,3.0233E4,6.421E3,1.8836E4,1.1397E4,5.169E3,1.252E3,1.327E3,1.7509E4,2.48E2,1.1149E4,1.15E2,5.054E3,2E0,1.25E3],"tree_param":{"num_deleted":"0","num_feature":"5093","num_nodes":"15","size_leaf_vector":"1"}},{"base_weights":[-7.4657414E-4,-8.7425953E-1,2.8347318E0,-2.3106816E0,-3.4395078E-1,2.182643E0,6.2052264E0,2.043961E-1,-5.2184737E-1,-5.270608E-1,-3.924391E-2,2.543622E-1,5.872613E-1,-1.248839E0,1.0669309E0],"categories":[],"categories_nodes":[],"categories_segments":[],"categories_sizes":[],"default_left":[0,0,0,0,0,0,0,0,0,0,0,0,0,0,0],"id":7,"left_children":[1,3,5,7,9,11,13,-1,-1,-1,-1,-1,-1,-1,-1],"loss_changes":[9.038207E4,2.1250123E4,1.8886414E4,2.030941E4,6.334915E3,6.2946914E3,1.6826172E3,0E0,0E0,0E0,0E0,0E0,0E0,0E0,0E0],"parents":[2147483647,0,0,1,1,2,2,3,3,4,4,5,5,6,6],"right_children":[2,4,6,8,10,12,14,-1,-1,-1,-1,-1,-1,-1,-1],"split_conditions":[3.25E0,1.03E0,8.5E0,1.4E-1,2.00001E0,5.38E0,2.00001E0,2.043961E-1,-5.2184737E-1,-5.270608E-1,-3.924391E-2,2.543622E-1,5.872613E-1,-1.248839E0,1.0669309E0],"split_indices":[5092,5092,5092,5092,4273,5092,2846,0,0,0,0,0,0,0,0],"split_type":[0,0,0,0,0,0,0,0,0,0,0,0,0,0,0],"sum_hessian":[3.6491E4,2.7897E4,8.594E3,7.522E3,2.0375E4,7.201E3,1.393E3,1.348E3,6.174E3,7.96E2,1.9579E4,4.7E3,2.501E3,9E0,1.384E3],"tree_param":{"num_deleted":"0","num_feature":"5093","num_nodes":"15","size_leaf_vector":"1"}},{"base_weights":[-1.6206503E-2,-9.582498E-1,1.8688647E0,-2.0387309E0,-5.7001317E-1,1.0094084E0,3.5407155E0,1.8960063E-1,-4.8751017E-1,-4.5505524E-1,-7.958712E-2,-4.401383E-1,1.948534E-1,-6.846091E-1,6.3648695E-1],"categories":[],"categories_nodes":[],"categories_segments":[],"categories_sizes":[],"default_left":[0,0,0,0,0,0,0,0,0,0,0,0,0,0,0],"id":8,"left_children":[1,3,5,7,9,11,13,-1,-1,-1,-1,-1,-1,-1,-1],"loss_changes":[6.518871E4,1.0267281E4,1.75752E4,1.7101965E4,3.8265703E3,4.0805205E3,6.7386094E3,0E0,0E0,0E0,0E0,0E0,0E0,0E0,0E0],"parents":[2147483647,0,0,1,1,2,2,3,3,4,4,5,5,6,6],"right_children":[2,4,6,8,10,12,14,-1,-1,-1,-1,-1,-1,-1,-1],"split_conditions":[2.54E0,9.4E-1,5.15E0,1.4E-1,2.00001E0,2.00001E0,2.00001E0,1.8960063E-1,-4.8751017E-1,-4.5505524E-1,-7.958712E-2,-4.401383E-1,1.948534E-1,-6.846091E-1,6.3648695E-1],"split_indices":[5092,5092,5092,5092,4273,4561,4019,0,0,0,0,0,0,0,0],"split_type":[0,0,0,0,0,0,0,0,0,0,0,0,0,0,0],"sum_hessian":[3.6709E4,2.4477E4,1.2232E4,6.47E3,1.8007E4,8.079E3,4.153E3,1.356E3,5.114E3,8.17E2,1.719E4,3.02E2,7.777E3,1.14E2,4.039E3],"tree_param":{"num_deleted":"0","num_feature":"5093","num_nodes":"15","size_leaf_vector":"1"}},{"base_weights":[-1.3015895E-2,-8.251836E-1,1.448947E0,-1.7997322E0,-5.0635743E-1,1.1450068E0,4.7343493E0,1.5520258E-1,-4.4018027E-1,-3.6414236E-1,-7.1482025E-2,1.3437575E-1,3.685745E-1,-3.620808E0,8.108591E-1],"categories":[],"categories_nodes":[],"categories_segments":[],"categories_sizes":[],"default_left":[0,0,0,0,0,0,0,0,0,0,0,0,0,0,0],"id":9,"left_children":[1,3,5,7,9,11,13,-1,-1,-1,-1,-1,-1,-1,-1],"loss_changes":[4.339097E4,7.299207E3,1.3031168E4,1.253241E4,2.4604233E3,4.3313193E3,1.4210996E3,0E0,0E0,0E0,0E0,0E0,0E0,0E0,0E0],"parents":[2147483647,0,0,1,1,2,2,3,3,4,4,5,5,6,6],"right_children":[2,4,6,8,10,12,14,-1,-1,-1,-1,-1,-1,-1,-1],"split_conditions":[2.43E0,9E-1,9.24E0,1.4E-1,2.00001E0,5.15E0,2.00001E0,1.5520258E-1,-4.4018027E-1,-3.6414236E-1,-7.1482025E-2,1.3437575E-1,3.685745E-1,-3.620808E0,8.108591E-1],"split_indices":[5092,5092,5092,5092,4273,5092,4398,0,0,0,0,0,0,0,0],"split_type":[0,0,0,0,0,0,0,0,0,0,0,0,0,0,0],"sum_hessian":[3.6544E4,2.3493E4,1.3051E4,5.791E3,1.7702E4,1.1946E4,1.105E3,1.314E3,4.477E3,8.68E2,1.6834E4,8.9E3,3.046E3,2E0,1.103E3],"tree_param":{"num_deleted":"0","num_feature":"5093","num_nodes":"15","size_leaf_vector":"1"}},{"base_weights":[7.1313595E-3,-7.096092E-1,1.2543013E0,-1.3210237E0,-3.7193456E-1,8.4580606E-1,3.1933596E0,1.15001194E-1,-2.8986812E-1,-2.9586166E-1,-5.0129462E-2,-1.0815387E0,1.5062778E-1,-1.5962106E0,5.608297E-1],"categories":[],"categories_nodes":[],"categories_segments":[],"categories_sizes":[],"default_left":[0,0,0,0,0,0,0,0,0,0,0,0,0,0,0],"id":10,"left_children":[1,3,5,7,9,11,13,-1,-1,-1,-1,-1,-1,-1,-1],"loss_changes":[3.2799098E4,4.8104697E3,1.0606289E4,6.44745E3,1.570908E3,3.418647E3,3.383004E3,0E0,0E0,0E0,0E0,0E0,0E0,0E0,0E0],"parents":[2147483647,0,0,1,1,2,2,3,3,4,4,5,5,6,6],"right_children":[2,4,6,8,10,12,14,-1,-1,-1,-1,-1,-1,-1,-1],"split_conditions":[2.38E0,1.09E0,6.85E0,1.4E-1,2.00001E0,2.00001E0,2.00001E0,1.15001194E-1,-2.8986812E-1,-2.9586166E-1,-5.0129462E-2,-1.0815387E0,1.5062778E-1,-1.5962106E0,5.608297E-1],"split_indices":[5092,5092,5092,5092,4273,2643,412,0,0,0,0,0,0,0,0],"split_type":[0,0,0,0,0,0,0,0,0,0,0,0,0,0,0],"sum_hessian":[3.6692E4,2.3301E4,1.3391E4,8.29E3,1.5011E4,1.1061E4,2.33E3,1.35E3,6.94E3,7.89E2,1.4222E4,6.5E1,1.0996E4,2.1E1,2.309E3],"tree_param":{"num_deleted":"0","num_feature":"5093","num_nodes":"15","size_leaf_vector":"1"}},{"base_weights":[6.8204287E-3,-3.6202666E-1,1.7542204E0,-8.553149E-1,7.699796E-2,-3.9641705E0,1.8685687E0,1.1590198E-1,-1.7244144E-1,-4.159344E-1,2.0589596E-2,-5.2463794E-1,-6.76314E-1,-1.2516451E0,3.2889944E-1],"categories":[],"categories_nodes":[],"categories_segments":[],"categories_sizes":[],"default_left":[0,0,0,0,0,0,0,0,0,0,0,0,0,0,0],"id":11,"left_children":[1,3,5,7,9,11,13,-1,-1,-1,-1,-1,-1,-1,-1],"loss_changes":[2.3593059E4,6.5458193E3,4.1722227E3,3.547629E3,1.7992142E3,8.487549E-1,4.1482617E3,0E0,0E0,0E0,0E0,0E0,0E0,0E0,0E0],"parents":[2147483647,0,0,1,1,2,2,3,3,4,4,5,5,6,6],"right_children":[2,4,6,8,10,12,14,-1,-1,-1,-1,-1,-1,-1,-1],"split_conditions":[3.88E0,1.49E0,2.00001E0,1.4E-1,2.00001E0,6.46E0,2.00001E0,1.1590198E-1,-1.7244144E-1,-4.159344E-1,2.0589596E-2,-5.2463794E-1,-6.76314E-1,-1.2516451E0,3.2889944E-1],"split_indices":[5092,5092,4019,5092,4561,5092,408,0,0,0,0,0,0,0,0],"split_type":[0,0,0,0,0,0,0,0,0,0,0,0,0,0,0],"sum_hessian":[3.6605E4,3.0225E4,6.38E3,1.4233E4,1.5992E4,1.25E2,6.255E3,1.355E3,1.2878E4,2.76E2,1.5716E4,4E0,1.21E2,4.8E1,6.207E3],"tree_param":{"num_deleted":"0","num_feature":"5093","num_nodes":"15","size_leaf_vector":"1"}},{"base_weights":[9.376113E-3,-2.677777E-1,1.6774714E0,-8.6495745E-1,1.230682E-3,1.4416728E0,4.3874474E0,1.3712215E-1,-1.9224565E-1,-1.1651664E0,2.270538E-3,-1.0748955E0,2.5834563E-1,-2.057833E0,7.7140445E-1],"categories":[],"categories_nodes":[],"categories_segments":[],"categories_sizes":[],"default_left":[0,0,0,0,0,0,0,0,0,0,0,0,0,0,0],"id":12,"left_children":[1,3,5,7,9,11,13,-1,-1,-1,-1,-1,-1,-1,-1],"loss_changes":[1.6870273E4,5.026907E3,3.320997E3,4.3780674E3,1.8031338E3,3.0658896E3,1.1260186E3,0E0,0E0,0E0,0E0,0E0,0E0,0E0,0E0],"parents":[2147483647,0,0,1,1,2,2,3,3,4,4,5,5,6,6],"right_children":[2,4,6,8,10,12,14,-1,-1,-1,-1,-1,-1,-1,-1],"split_conditions":[4.37E0,1.2E0,1.369E1,1.4E-1,2.00001E0,2.00001E0,2.00001E0,1.3712215E-1,-1.9224565E-1,-1.1651664E0,2.270538E-3,-1.0748955E0,2.5834563E-1,-2.057833E0,7.7140445E-1],"split_indices":[5092,5092,5092,5092,313,2255,1705,0,0,0,0,0,0,0,0],"split_type":[0,0,0,0,0,0,0,0,0,0,0,0,0,0,0],"sum_hessian":[3.649E4,3.1291E4,5.199E3,9.718E3,2.1573E4,4.783E3,4.16E2,1.346E3,8.372E3,3.8E1,2.1535E4,5E1,4.733E3,4E0,4.12E2],"tree_param":{"num_deleted":"0","num_feature":"5093","num_nodes":"15","size_leaf_vector":"1"}},{"base_weights":[2.1719428E-2,-4.1612285E-1,8.2900673E-1,-1.1472787E0,-2.3906805E-1,6.6241366E-1,2.8966777E0,6.0669992E-2,-3.0089664E-1,-2.3343983E-1,-3.1167077E-2,2.6247785E0,1.0889802E-1,-1.7273576E0,5.07464E-1],"categories":[],"categories_nodes":[],"categories_segments":[],"categories_sizes":[],"default_left":[0,0,0,0,0,0,0,0,0,0,0,0,0,0,0],"id":13,"left_children":[1,3,5,7,9,11,13,-1,-1,-1,-1,-1,-1,-1,-1],"loss_changes":[1.2970845E4,3.0797993E3,4.444329E3,4.382762E3,1.2032048E3,3.537961E3,1.2222441E3,0E0,0E0,0E0,0E0,0E0,0E0,0E0,0E0],"parents":[2147483647,0,0,1,1,2,2,3,3,4,4,5,5,6,6],"right_children":[2,4,6,8,10,12,14,-1,-1,-1,-1,-1,-1,-1,-1],"split_conditions":[2.45E0,8E-1,9.75E0,1.4E-1,2.00001E0,2.00001E0,2.00001E0,6.0669992E-2,-3.0089664E-1,-2.3343983E-1,-3.1167077E-2,2.6247785E0,1.0889802E-1,-1.7273576E0,5.07464E-1],"split_indices":[5092,5092,5092,5092,4273,4651,1705,0,0,0,0,0,0,0,0],"split_type":[0,0,0,0,0,0,0,0,0,0,0,0,0,0,0],"sum_hessian":[3.6696E4,2.3792E4,1.2904E4,4.638E3,1.9154E4,1.1942E4,9.62E2,1.365E3,3.273E3,8.86E2,1.8268E4,1.6E1,1.1926E4,7E0,9.55E2],"tree_param":{"num_deleted":"0","num_feature":"5093","num_nodes":"15","size_leaf_vector":"1"}},{"base_weights":[-1.4041012E-2,-2.1838331E-1,1.0615661E0,-9.636461E-1,-8.811629E-2,-8.471095E0,1.1144133E0,7.7786E-2,-2.6092863E-1,-1.4239727E0,-1.36878E-2,-1.8412013E0,-1.336009E0,-6.310501E-1,2.0657802E-1],"categories":[],"categories_nodes":[],"categories_segments":[],"categories_sizes":[],"default_left":[0,0,0,0,0,0,0,0,0,0,0,0,0,0,0],"id":14,"left_children":[1,3,5,7,9,11,13,-1,-1,-1,-1,-1,-1,-1,-1],"loss_changes":[8.0126704E3,2.9741094E3,2.93188E3,3.7324893E3,1.5963252E3,3.5675293E1,2.9181895E3,0E0,0E0,0E0,0E0,0E0,0E0,0E0,0E0],"parents":[2147483647,0,0,1,1,2,2,3,3,4,4,5,5,6,6],"right_children":[2,4,6,8,10,12,14,-1,-1,-1,-1,-1,-1,-1,-1],"split_conditions":[4.09E0,8E-1,2.00001E0,1.4E-1,2.00001E0,6.85E0,2.00001E0,7.7786E-2,-2.6092863E-1,-1.4239727E0,-1.36878E-2,-1.8412013E0,-1.336009E0,-6.310501E-1,2.0657802E-1],"split_indices":[5092,5092,412,5092,1834,5092,4019,0,0,0,0,0,0,0,0],"split_type":[0,0,0,0,0,0,0,0,0,0,0,0,0,0,0],"sum_hessian":[3.6456E4,3.0636E4,5.82E3,4.558E3,2.6078E4,3.2E1,5.788E3,1.313E3,3.245E3,2.3E1,2.6055E4,6E0,2.6E1,1.22E2,5.666E3],"tree_param":{"num_deleted":"0","num_feature":"5093","num_nodes":"15","size_leaf_vector":"1"}},{"base_weights":[-7.4230796E-3,-3.6790437E-1,4.6186188E-1,5.8898554E0,-3.7145102E-1,3.799278E-1,2.7742293E0,5.2310567E0,-6.3501395E-2,-4.1036507E-1,7.478806E-2,-3.4181852E0,4.8521766E-1],"categories":[],"categories_nodes":[],"categories_segments":[],"categories_sizes":[],"default_left":[0,0,0,0,0,0,0,0,0,0,0,0,0],"id":15,"left_children":[1,3,5,-1,7,9,11,-1,-1,-1,-1,-1,-1],"loss_changes":[6.180586E3,2.570042E3,3.0066685E3,0E0,2.0330945E3,2.6299304E3,1.1009307E3,0E0,0E0,0E0,0E0,0E0,0E0],"parents":[2147483647,0,0,1,1,2,2,4,4,5,5,6,6],"right_children":[2,4,6,-1,8,10,12,-1,-1,-1,-1,-1,-1],"split_conditions":[2.08E0,2.00001E0,1.219E1,5.8898554E0,2.00001E0,2.00001E0,2.00001E0,5.2310567E0,-6.3501395E-2,-4.1036507E-1,7.478806E-2,-3.4181852E0,4.8521766E-1],"split_indices":[5092,4742,5092,0,4556,4561,4398,0,0,0,0,0,0],"split_type":[0,0,0,0,0,0,0,0,0,0,0,0,0],"sum_hessian":[3.6535E4,2.0663E4,1.5872E4,2E0,2.0661E4,1.5329E4,5.43E2,2E0,2.0659E4,3.28E2,1.5001E4,2E0,5.41E2],"tree_param":{"num_deleted":"0","num_feature":"5093","num_nodes":"13","size_leaf_vector":"1"}},{"base_weights":[2.136533E-2,-1.498602E-1,8.424909E-1,-7.30863E-1,-5.735509E-2,-6.4639664E0,9.019137E-1,1.0489704E-1,-2.3580301E-1,6.4716196E-1,-1.1586092E-2,-3.5693622E-1,-1.1929251E0,-9.859952E-1,1.6204192E-1],"categories":[],"categories_nodes":[],"categories_segments":[],"categories_sizes":[],"default_left":[0,0,0,0,0,0,0,0,0,0,0,0,0,0,0],"id":16,"left_children":[1,3,5,7,9,11,13,-1,-1,-1,-1,-1,-1,-1,-1],"loss_changes":[5.1604653E3,1.63216E3,2.7494297E3,3.7167188E3,1.1156385E3,1.2525122E2,2.2790288E3,0E0,0E0,0E0,0E0,0E0,0E0,0E0,0E0],"parents":[2147483647,0,0,1,1,2,2,3,3,4,4,5,5,6,6],"right_children":[2,4,6,8,10,12,14,-1,-1,-1,-1,-1,-1,-1,-1],"split_conditions":[3.88E0,7.4E-1,2.00001E0,1.4E-1,2.00001E0,4.22E0,2.00001E0,1.0489704E-1,-2.3580301E-1,6.4716196E-1,-1.1586092E-2,-3.5693622E-1,-1.1929251E0,-9.859952E-1,1.6204192E-1],"split_indices":[5092,5092,408,5092,4174,5092,2254,0,0,0,0,0,0,0,0],"split_type":[0,0,0,0,0,0,0,0,0,0,0,0,0,0,0],"sum_hessian":[3.6703E4,3.037E4,6.333E3,4.171E3,2.6199E4,5.1E1,6.282E3,1.37E3,2.801E3,7.4E1,2.6125E4,6E0,4.5E1,5E1,6.232E3],"tree_param":{"num_deleted":"0","num_feature":"5093","num_nodes":"15","size_leaf_vector":"1"}},{"base_weights":[-1.1685779E-3,-5.9533097E-2,1.8390117E0,-3.040995E-1,2.0887214E-1,-9.380075E0,1.9402628E0,4.598059E0,-5.207155E-2,-1.1386197E0,3.86797E-2,-1.4837725E0,-1.9279174E0,4.058863E0,3.2188815E-1],"categories":[],"categories_nodes":[],"categories_segments":[],"categories_sizes":[],"default_left":[0,0,0,0,0,0,0,0,0,0,0,0,0,0,0],"id":17,"left_children":[1,3,5,7,9,11,13,-1,-1,-1,-1,-1,-1,-1,-1],"loss_changes":[3.9376616E3,2.3328403E3,1.280906E3,1.5682852E3,2.264818E3,1.6989746E0,1.0102036E3,0E0,0E0,0E0,0E0,0E0,0E0,0E0,0E0],"parents":[2147483647,0,0,1,1,2,2,3,3,4,4,5,5,6,6],"right_children":[2,4,6,8,10,12,14,-1,-1,-1,-1,-1,-1,-1,-1],"split_conditions":[9.24E0,1.85E0,2.00001E0,2.00001E0,2.00001E0,1.116E1,2.00001E0,4.598059E0,-5.207155E-2,-1.1386197E0,3.86797E-2,-1.4837725E0,-1.9279174E0,4.058863E0,3.2188815E-1],"split_indices":[5092,5092,2202,173,4670,5092,3380,0,0,0,0,0,0,0,0],"split_type":[0,0,0,0,0,0,0,0,0,0,0,0,0,0,0],"sum_hessian":[3.6665E4,3.5538E4,1.127E3,1.8595E4,1.6943E4,1E1,1.117E3,2E0,1.8593E4,4.7E1,1.6896E4,8E0,2E0,2E0,1.115E3],"tree_param":{"num_deleted":"0","num_feature":"5093","num_nodes":"15","size_leaf_vector":"1"}},{"base_weights":[-2.9607875E-2,-7.9328074E0,-2.1768242E-2,-1.5723125E0,-1.2744313E0,-1.699176E-1,4.1155913E-1,-1.3294888E0,-2.740639E-2,-1.0235263E0,7.653969E-2],"categories":[],"categories_nodes":[],"categories_segments":[],"categories_sizes":[],"default_left":[0,0,0,0,0,0,0,0,0,0,0],"id":18,"left_children":[1,3,5,-1,-1,7,9,-1,-1,-1,-1],"loss_changes":[2.2560688E3,1.21154785E1,2.3363088E3,0E0,0E0,1.7141162E3,2.389302E3,0E0,0E0,0E0,0E0],"parents":[2147483647,0,0,1,1,2,2,5,5,6,6],"right_children":[2,4,6,-1,-1,8,10,-1,-1,-1,-1],"split_conditions":[2.00001E0,6.85E0,3.04E0,-1.5723125E0,-1.2744313E0,2.00001E0,2.00001E0,-1.3294888E0,-2.740639E-2,-1.0235263E0,7.653969E-2],"split_indices":[412,5092,5092,0,0,1461,2643,0,0,0,0],"split_type":[0,0,0,0,0,0,0,0,0,0,0],"sum_hessian":[3.6429E4,3.6E1,3.6393E4,8E0,2.8E1,2.7121E4,9.272E3,2.9E1,2.7092E4,5.7E1,9.215E3],"tree_param":{"num_deleted":"0","num_feature":"5093","num_nodes":"11","size_leaf_vector":"1"}},{"base_weights":[-3.4271923E-4,2.2497469E1,-4.691366E-3,1.9095016E0,5.167765E0,-9.502713E-2,8.2916754E-1,1.5252002E0,-1.7091718E-2,-6.1380374E-1,1.6692711E-1],"categories":[],"categories_nodes":[],"categories_segments":[],"categories_sizes":[],"default_left":[0,0,0,0,0,0,0,0,0,0,0],"id":19,"left_children":[1,3,5,-1,-1,7,9,-1,-1,-1,-1],"loss_changes":[3.5863762E3,6.0152246E2,2.76285E3,0E0,0E0,1.7442266E3,2.4818684E3,0E0,0E0,0E0,0E0],"parents":[2147483647,0,0,1,1,2,2,5,5,6,6],"right_children":[2,4,6,-1,-1,8,10,-1,-1,-1,-1],"split_conditions":[2.00001E0,3.01E0,5.61E0,1.9095016E0,5.167765E0,2.00001E0,2.00001E0,1.5252002E0,-1.7091718E-2,-6.1380374E-1,1.6692711E-1],"split_indices":[1804,5092,5092,0,0,4192,4019,0,0,0,0],"split_type":[0,0,0,0,0,0,0,0,0,0,0],"sum_hessian":[3.6686E4,7E0,3.6679E4,3E0,4E0,3.3094E4,3.585E3,2.1E1,3.3073E4,1.21E2,3.464E3],"tree_param":{"num_deleted":"0","num_feature":"5093","num_nodes":"11","size_leaf_vector":"1"}},{"base_weights":[1.1689202E-2,-5.422726E-1,1.07037455E-1,4.9304204E0,-5.537821E-1,1.7570965E1,1.03629544E-1,-1.7849585E0,-8.847393E-2,1.556859E0,3.6374319E0,4.8804803E0,1.7241357E-2],"categories":[],"categories_nodes":[],"categories_segments":[],"categories_sizes":[],"default_left":[0,0,0,0,0,0,0,0,0,0,0,0,0],"id":20,"left_children":[1,3,5,-1,7,9,11,-1,-1,-1,-1,-1,-1],"loss_changes":[1.9330355E3,1.8303438E3,1.85595E3,0E0,1.7055048E3,1.7790405E2,1.7152993E3,0E0,0E0,0E0,0E0,0E0,0E0],"parents":[2147483647,0,0,1,1,2,2,4,4,5,5,6,6],"right_children":[2,4,6,-1,8,10,12,-1,-1,-1,-1,-1,-1],"split_conditions":[8.5E-1,2.00001E0,2.00001E0,4.9304204E0,2.00001E0,3.01E0,2.00001E0,-1.7849585E0,-8.847393E-2,1.556859E0,3.6374319E0,4.8804803E0,1.7241357E-2],"split_indices":[5092,4742,1804,0,1461,5092,1216,0,0,0,0,0,0],"split_type":[0,0,0,0,0,0,0,0,0,0,0,0,0],"sum_hessian":[3.6598E4,5.374E3,3.1224E4,2E0,5.372E3,6E0,3.1218E4,1.7E1,5.355E3,2E0,4E0,2E0,3.1216E4],"tree_param":{"num_deleted":"0","num_feature":"5093","num_nodes":"13","size_leaf_vector":"1"}},{"base_weights":[2.29228E-3,9.535326E0,-5.0366726E-3,3.554864E0,8.092286E0,-7.37325E-2,7.8373945E-1,1.6217641E0,7.1427494E-1,-8.94691E-1,-1.0969882E-2,-4.8487204E-1,1.5953353E-1],"categories":[],"categories_nodes":[],"categories_segments":[],"categories_sizes":[],"default_left":[0,0,0,0,0,0,0,0,0,0,0,0,0],"id":21,"left_children":[1,3,5,-1,7,9,11,-1,-1,-1,-1,-1,-1],"loss_changes":[2.5542192E3,4.45511E2,1.9784006E3,0E0,1.3836646E2,1.5758508E3,1.6775181E3,0E0,0E0,0E0,0E0,0E0,0E0],"parents":[2147483647,0,0,1,1,2,2,4,4,5,5,6,6],"right_children":[2,4,6,-1,8,10,12,-1,-1,-1,-1,-1,-1],"split_conditions":[2.00001E0,3.58E0,6.3E0,3.554864E0,5.73E0,2.00001E0,2.00001E0,1.6217641E0,7.1427494E-1,-8.94691E-1,-1.0969882E-2,-4.8487204E-1,1.5953353E-1],"split_indices":[4192,5092,5092,0,5092,2255,4019,0,0,0,0,0,0],"split_type":[0,0,0,0,0,0,0,0,0,0,0,0,0],"sum_hessian":[3.6541E4,2.8E1,3.6513E4,3E0,2.5E1,3.3588E4,2.925E3,1.8E1,7E0,5.8E1,3.353E4,1.21E2,2.804E3],"tree_param":{"num_deleted":"0","num_feature":"5093","num_nodes":"13","size_leaf_vector":"1"}},{"base_weights":[-2.5278717E-2,4.2534204E0,-2.7403682E-2,3.0662363E0,-2.9929886E-2,4.7615294E0,-5.346271E-3],"categories":[],"categories_nodes":[],"categories_segments":[],"categories_sizes":[],"default_left":[0,0,0,0,0,0,0],"id":22,"left_children":[1,-1,3,-1,5,-1,-1],"loss_changes":[1.9458824E3,0E0,1.6687655E3,0E0,1.648046E3,0E0,0E0],"parents":[2147483647,0,0,2,2,4,4],"right_children":[2,-1,4,-1,6,-1,-1],"split_conditions":[2.00001E0,4.2534204E0,2.00001E0,3.0662363E0,2.00001E0,4.7615294E0,-5.346271E-3],"split_indices":[2626,0,1774,0,3771,0,0],"split_type":[0,0,0,0,0,0,0],"sum_hessian":[3.6516E4,3E0,3.6513E4,5E0,3.6508E4,2E0,3.6506E4],"tree_param":{"num_deleted":"0","num_feature":"5093","num_nodes":"7","size_leaf_vector":"1"}},{"base_weights":[-2.0296877E-2,4.671577E0,-2.187557E-2,3.7881544E0,-2.3769869E-2,-8.174826E-1,-2.5750832E-3],"categories":[],"categories_nodes":[],"categories_segments":[],"categories_sizes":[],"default_left":[0,0,0,0,0,0,0],"id":23,"left_children":[1,-1,3,-1,5,-1,-1],"loss_changes":[1.5853213E3,0E0,1.5433722E3,0E0,1.5014081E3,0E0,0E0],"parents":[2147483647,0,0,2,2,4,4],"right_children":[2,-1,4,-1,6,-1,-1],"split_conditions":[2.00001E0,4.671577E0,2.00001E0,3.7881544E0,2.00001E0,-8.174826E-1,-2.5750832E-3],"split_indices":[3621,0,3771,0,2643,0,0],"split_type":[0,0,0,0,0,0,0],"sum_hessian":[3.649E4,2E0,3.6488E4,3E0,3.6485E4,6.5E1,3.642E4],"tree_param":{"num_deleted":"0","num_feature":"5093","num_nodes":"7","size_leaf_vector":"1"}},{"base_weights":[-1.1390713E-3,-2.0859337E-1,2.0635363E-1,4.078167E0,-2.1135528E-1,1.1719024E1,1.9373077E-1,3.8748136E0,-3.627309E-2,2.5688652E-2,2.2021165E0,1.754091E0,3.05743E-2],"categories":[],"categories_nodes":[],"categories_segments":[],"categories_sizes":[],"default_left":[0,0,0,0,0,0,0,0,0,0,0,0,0],"id":24,"left_children":[1,3,5,-1,7,9,11,-1,-1,-1,-1,-1,-1],"loss_changes":[1.5798545E3,1.2274956E3,2.6648582E3,0E0,1.109403E3,2.9362476E2,2.4863757E3,0E0,0E0,0E0,0E0,0E0,0E0],"parents":[2147483647,0,0,1,1,2,2,4,4,5,5,6,6],"right_children":[2,4,6,-1,8,10,12,-1,-1,-1,-1,-1,-1],"split_conditions":[1.82E0,2.00001E0,2.00001E0,4.078167E0,2.00001E0,2.12E0,2.00001E0,3.8748136E0,-3.627309E-2,2.5688652E-2,2.2021165E0,1.754091E0,3.05743E-2],"split_indices":[5092,3048,2682,0,173,5092,4651,0,0,0,0,0,0],"split_type":[0,0,0,0,0,0,0,0,0,0,0,0,0],"sum_hessian":[3.6702E4,1.8353E4,1.8349E4,2E0,1.8351E4,2E1,1.8329E4,2E0,1.8349E4,2E0,1.8E1,2.4E1,1.8305E4],"tree_param":{"num_deleted":"0","num_feature":"5093","num_nodes":"13","size_leaf_vector":"1"}},{"base_weights":[2.4481056E-2,-8.027815E-4,2.1300693E0,9.4089775E0,-6.0257353E-3,-2.8100405E0,2.307179E0,2.0632484E0,1.7502744E-1,4.6079187E0,-1.287351E-3,-3.0129254E0,4.0760878E-1],"categories":[],"categories_nodes":[],"categories_segments":[],"categories_sizes":[],"default_left":[0,0,0,0,0,0,0,0,0,0,0,0,0],"id":25,"left_children":[1,3,5,7,9,-1,11,-1,-1,-1,-1,-1,-1],"loss_changes":[1.9521122E3,1.7793234E3,1.4429508E3,4.620359E2,1.540821E3,0E0,8.44646E2,0E0,0E0,0E0,0E0,0E0,0E0],"parents":[2147483647,0,0,1,1,2,2,3,3,4,4,6,6],"right_children":[2,4,6,8,10,-1,12,-1,-1,-1,-1,-1,-1],"split_conditions":[1.369E1,2.00001E0,2.00001E0,6E0,2.00001E0,-2.8100405E0,2.00001E0,2.0632484E0,1.7502744E-1,4.6079187E0,-1.287351E-3,-3.0129254E0,4.0760878E-1],"split_indices":[5092,4229,719,5092,2920,0,4398,0,0,0,0,0,0],"split_type":[0,0,0,0,0,0,0,0,0,0,0,0,0],"sum_hessian":[3.6663E4,3.6228E4,4.35E2,2E1,3.6208E4,4E0,4.31E2,1.5E1,5E0,2E0,3.6206E4,2E0,4.29E2],"tree_param":{"num_deleted":"0","num_feature":"5093","num_nodes":"13","size_leaf_vector":"1"}},{"base_weights":[7.9835355E-3,4.73911E0,6.387182E-3,-8.789462E0,1.12240305E-2,-1.6362207E0,-6.3213086E-1,-1.4162291E0,2.7606185E-3],"categories":[],"categories_nodes":[],"categories_segments":[],"categories_sizes":[],"default_left":[0,0,0,0,0,0,0,0,0],"id":26,"left_children":[1,-1,3,5,7,-1,-1,-1,-1],"loss_changes":[1.6281495E3,0E0,1.5547109E3,8.299341E1,1.5465436E3,0E0,0E0,0E0,0E0],"parents":[2147483647,0,0,2,2,3,3,4,4],"right_children":[2,-1,4,6,8,-1,-1,-1,-1],"split_conditions":[2.00001E0,4.73911E0,2.00001E0,5.5E0,2.00001E0,-1.6362207E0,-6.3213086E-1,-1.4162291E0,2.7606185E-3],"split_indices":[2626,0,4891,5092,448,0,0,0,0],"split_type":[0,0,0,0,0,0,0,0,0],"sum_hessian":[3.6571E4,2E0,3.6569E4,2E1,3.6549E4,1.7E1,3E0,2.2E1,3.6527E4],"tree_param":{"num_deleted":"0","num_feature":"5093","num_nodes":"9","size_leaf_vector":"1"}},{"base_weights":[2.2666447E-2,-1.2700935E-1,3.002897E-1,4.0919614E0,-1.2914917E-1,1.6050255E1,2.9030335E-1,3.8100069E0,-2.2230709E-2,1.7165278E0,4.295032E0,1.7221837E0,4.670392E-2],"categories":[],"categories_nodes":[],"categories_segments":[],"categories_sizes":[],"default_left":[0,0,0,0,0,0,0,0,0,0,0,0,0],"id":27,"left_children":[1,3,5,-1,7,9,11,-1,-1,-1,-1,-1,-1],"loss_changes":[1.5152344E3,1.2274246E3,2.0065698E3,0E0,1.0651328E3,4.187234E2,1.8615198E3,0E0,0E0,0E0,0E0,0E0,0E0],"parents":[2147483647,0,0,1,1,2,2,4,4,5,5,6,6],"right_children":[2,4,6,-1,8,10,12,-1,-1,-1,-1,-1,-1],"split_conditions":[2.47E0,2.00001E0,2.00001E0,4.0919614E0,2.00001E0,3.54E0,2.00001E0,3.8100069E0,-2.2230709E-2,1.7165278E0,4.295032E0,1.7221837E0,4.670392E-2],"split_indices":[5092,2418,386,0,621,5092,2682,0,0,0,0,0,0],"split_type":[0,0,0,0,0,0,0,0,0,0,0,0,0],"sum_hessian":[3.6464E4,2.3691E4,1.2773E4,2E0,2.3689E4,8E0,1.2765E4,2E0,2.3687E4,5E0,3E0,1.9E1,1.2746E4],"tree_param":{"num_deleted":"0","num_feature":"5093","num_nodes":"13","size_leaf_vector":"1"}},{"base_weights":[8.579839E-3,1.4765865E1,4.1058604E-3,2.7101138E0,2.0870476E0,-5.169547E0,1.2335356E-2,-1.3135684E0,-8.3264756E-1,4.5171537E0,1.8328306E-3],"categories":[],"categories_nodes":[],"categories_segments":[],"categories_sizes":[],"default_left":[0,0,0,0,0,0,0,0,0,0,0],"id":28,"left_children":[1,3,5,-1,-1,7,9,-1,-1,-1,-1],"loss_changes":[2.414621E3,1.3108643E1,1.5571967E3,0E0,0E0,3.3805298E1,1.4786866E3,0E0,0E0,0E0,0E0],"parents":[2147483647,0,0,1,1,2,2,5,5,6,6],"right_children":[2,4,6,-1,-1,8,10,-1,-1,-1,-1],"split_conditions":[2.00001E0,1.836E1,2.00001E0,2.7101138E0,2.0870476E0,3.88E0,2.00001E0,-1.3135684E0,-8.3264756E-1,4.5171537E0,1.8328306E-3],"split_indices":[4150,5092,408,0,0,5092,1668,0,0,0,0],"split_type":[0,0,0,0,0,0,0,0,0,0,0],"sum_hessian":[3.66E4,1.1E1,3.6589E4,7E0,4E0,5.8E1,3.6531E4,5E0,5.3E1,2E0,3.6529E4],"tree_param":{"num_deleted":"0","num_feature":"5093","num_nodes":"11","size_leaf_vector":"1"}},{"base_weights":[1.0066136E-3,1.9021015E1,-1.1186249E-3,2.596859E0,3.711379E0,-6.375938E0,5.0125346E-3,-7.0411617E-1,-1.207706E0,4.3676376E0,5.9946487E-4],"categories":[],"categories_nodes":[],"categories_segments":[],"categories_sizes":[],"default_left":[0,0,0,0,0,0,0,0,0,0,0],"id":29,"left_children":[1,3,5,-1,-1,7,9,-1,-1,-1,-1],"loss_changes":[1.477671E3,1.0532471E1,1.427134E3,0E0,0E0,5.4455566E1,1.3831625E3,0E0,0E0,0E0,0E0],"parents":[2147483647,0,0,1,1,2,2,5,5,6,6],"right_children":[2,4,6,-1,-1,8,10,-1,-1,-1,-1],"split_conditions":[2.00001E0,8.15E0,2.00001E0,2.596859E0,3.711379E0,2.63E0,2.00001E0,-7.0411617E-1,-1.207706E0,4.3676376E0,5.9946487E-4],"split_indices":[4894,5092,313,0,0,5092,4973,0,0,0,0],"split_type":[0,0,0,0,0,0,0,0,0,0,0],"sum_hessian":[3.6497E4,4E0,3.6493E4,2E0,2E0,3.5E1,3.6458E4,9E0,2.6E1,2E0,3.6456E4],"tree_param":{"num_deleted":"0","num_feature":"5093","num_nodes":"11","size_leaf_vector":"1"}},{"base_weights":[-6.5606236E-3,-7.4140835E0,-1.0859116E-3,-5.9628093E-1,-7.707957E0,-2.7923982E0,1.1948161E-3,-1.3786414E0,-9.026484E-1,-1.1591307E0,1.091831E-3],"categories":[],"categories_nodes":[],"categories_segments":[],"categories_sizes":[],"default_left":[0,0,0,0,0,0,0,0,0,0,0],"id":30,"left_children":[1,3,5,-1,7,-1,9,-1,-1,-1,-1],"loss_changes":[1.4872456E3,2.7324707E1,1.3796356E3,0E0,2.0067139E1,0E0,1.314606E3,0E0,0E0,0E0,0E0],"parents":[2147483647,0,0,1,1,2,2,4,4,6,6],"right_children":[2,4,6,-1,8,-1,10,-1,-1,-1,-1],"split_conditions":[2.00001E0,2.99E0,2.00001E0,-5.9628093E-1,3.5E0,-2.7923982E0,2.00001E0,-1.3786414E0,-9.026484E-1,-1.1591307E0,1.091831E-3],"split_indices":[1834,5092,1666,0,5092,0,412,0,0,0,0],"split_type":[0,0,0,0,0,0,0,0,0,0,0],"sum_hessian":[3.6696E4,2.7E1,3.6669E4,2E0,2.5E1,5E0,3.6664E4,2.1E1,4E0,2.8E1,3.6636E4],"tree_param":{"num_deleted":"0","num_feature":"5093","num_nodes":"11","size_leaf_vector":"1"}},{"base_weights":[-3.0881265E-2,1.3287687E1,-3.384561E-2,2.9086897E0,1.5445973E0,4.256789E0,-4.2845283E-2,8.101732E-1,4.3253675E-1,-9.6260786E-1,-6.2058396E-3],"categories":[],"categories_nodes":[],"categories_segments":[],"categories_sizes":[],"default_left":[0,0,0,0,0,0,0,0,0,0,0],"id":31,"left_children":[1,3,5,-1,-1,7,9,-1,-1,-1,-1],"loss_changes":[1.4343384E3,1.14229126E2,1.4036233E3,0E0,0E0,6.585144E1,1.2745417E3,0E0,0E0,0E0,0E0],"parents":[2147483647,0,0,1,1,2,2,5,5,6,6],"right_children":[2,4,6,-1,-1,8,10,-1,-1,-1,-1],"split_conditions":[2.00001E0,6.46E0,2.00001E0,2.9086897E0,1.5445973E0,3.14E0,2.00001E0,8.101732E-1,4.3253675E-1,-9.6260786E-1,-6.2058396E-3],"split_indices":[1483,5092,4174,0,0,5092,4670,0,0,0,0],"split_type":[0,0,0,0,0,0,0,0,0,0,0],"sum_hessian":[3.6371E4,8E0,3.6363E4,4E0,4E0,7.6E1,3.6287E4,5.8E1,1.8E1,4E1,3.6247E4],"tree_param":{"num_deleted":"0","num_feature":"5093","num_nodes":"11","size_leaf_vector":"1"}},{"base_weights":[1.2417634E-2,3.6695788E0,1.058433E-2,-4.8248906E0,1.8701205E-2,-6.263697E-1,-9.674363E-1,-3.523902E-1,6.274933E-3],"categories":[],"categories_nodes":[],"categories_segments":[],"categories_sizes":[],"default_left":[0,0,0,0,0,0,0,0,0],"id":32,"left_children":[1,-1,3,5,7,-1,-1,-1,-1],"loss_changes":[1.4437668E3,0E0,1.430661E3,5.7930542E1,1.3983464E3,0E0,0E0,0E0,0E0],"parents":[2147483647,0,0,2,2,3,3,4,4],"right_children":[2,-1,4,6,8,-1,-1,-1,-1],"split_conditions":[2.00001E0,3.6695788E0,2.00001E0,5.15E0,2.00001E0,-6.263697E-1,-9.674363E-1,-3.523902E-1,6.274933E-3],"split_indices":[5072,0,2255,5092,4561,0,0,0,0],"split_type":[0,0,0,0,0,0,0,0,0],"sum_hessian":[3.6469E4,3E0,3.6466E4,6.1E1,3.6405E4,2.7E1,3.4E1,3.15E2,3.609E4],"tree_param":{"num_deleted":"0","num_feature":"5093","num_nodes":"9","size_leaf_vector":"1"}},{"base_weights":[5.184631E-4,6.511904E0,-5.745146E-3,2.9639053E0,5.4361186E0,-4.85833E0,1.8625073E-3,1.2800868E0,7.008321E-1,-7.558645E-1,-2.5692434E0,4.216609E0,7.367465E-5],"categories":[],"categories_nodes":[],"categories_segments":[],"categories_sizes":[],"default_left":[0,0,0,0,0,0,0,0,0,0,0,0,0],"id":33,"left_children":[1,3,5,-1,7,9,11,-1,-1,-1,-1,-1,-1],"loss_changes":[1.4889353E3,4.0326953E2,1.3463025E3,0E0,8.4258545E1,2.2661243E2,1.2894691E3,0E0,0E0,0E0,0E0,0E0,0E0],"parents":[2147483647,0,0,1,1,2,2,4,4,5,5,6,6],"right_children":[2,4,6,-1,8,10,12,-1,-1,-1,-1,-1,-1],"split_conditions":[2.00001E0,3.58E0,2.00001E0,2.9639053E0,4.22E0,5.26E0,2.00001E0,1.2800868E0,7.008321E-1,-7.558645E-1,-2.5692434E0,4.216609E0,7.367465E-5],"split_indices":[4192,5092,2254,0,5092,5092,3568,0,0,0,0,0,0],"split_type":[0,0,0,0,0,0,0,0,0,0,0,0,0],"sum_hessian":[3.6487E4,3.5E1,3.6452E4,3E0,3.2E1,5.7E1,3.6395E4,1.2E1,2E1,5.5E1,2E0,2E0,3.6393E4],"tree_param":{"num_deleted":"0","num_feature":"5093","num_nodes":"13","size_leaf_vector":"1"}},{"base_weights":[-2.4851214E-2,6.805303E0,-3.1612292E-2,8.4573765E0,3.8372135E0,-6.221793E-1,3.0759476E-2,1.1779581E0,1.8144561E0,4.503372E-2,1.3429139E0,-8.5337436E-1,-7.529324E-2,5.3038055E-1,3.0862084E-3],"categories":[],"categories_nodes":[],"categories_segments":[],"categories_sizes":[],"default_left":[0,0,0,0,0,0,0,0,0,0,0,0,0,0,0],"id":34,"left_children":[1,3,5,7,9,11,13,-1,-1,-1,-1,-1,-1,-1,-1],"loss_changes":[1.685038E3,1.726665E2,1.3434777E3,6.9746216E1,1.896875E2,2.7354878E3,1.2825017E3,0E0,0E0,0E0,0E0,0E0,0E0,0E0,0E0],"parents":[2147483647,0,0,1,1,2,2,3,3,4,4,5,5,6,6],"right_children":[2,4,6,8,10,12,14,-1,-1,-1,-1,-1,-1,-1,-1],"split_conditions":[2.00001E0,4.03E0,6.9E-1,3.58E0,4.52E0,2.00001E0,2.00001E0,1.1779581E0,1.8144561E0,4.503372E-2,1.3429139E0,-8.5337436E-1,-7.529324E-2,5.3038055E-1,3.0862084E-3],"split_indices":[4183,5092,5092,5092,5092,4978,4651,0,0,0,0,0,0,0,0],"split_type":[0,0,0,0,0,0,0,0,0,0,0,0,0,0,0],"sum_hessian":[3.6507E4,3.6E1,3.6471E4,2.3E1,1.3E1,3.484E3,3.2987E4,1.4E1,9E0,7E0,6E0,1.35E2,3.349E3,1.33E2,3.2854E4],"tree_param":{"num_deleted":"0","num_feature":"5093","num_nodes":"15","size_leaf_vector":"1"}},{"base_weights":[3.5901254E-3,-7.52805E0,8.985968E-3,-1.3624518E0,-8.927785E-1,-4.7537937E0,1.7250698E-2,-6.633786E-1,-1.0049624E0,1.6101068E0,2.3010287E-3],"categories":[],"categories_nodes":[],"categories_segments":[],"categories_sizes":[],"default_left":[0,0,0,0,0,0,0,0,0,0,0],"id":35,"left_children":[1,3,5,-1,-1,7,9,-1,-1,-1,-1],"loss_changes":[1.4807041E3,2.4811157E1,1.433493E3,0E0,0E0,5.9089844E1,1.2665239E3,0E0,0E0,0E0,0E0],"parents":[2147483647,0,0,1,1,2,2,5,5,6,6],"right_children":[2,4,6,-1,-1,8,10,-1,-1,-1,-1],"split_conditions":[2.00001E0,5.61E0,2.00001E0,-1.3624518E0,-8.927785E-1,5.26E0,2.00001E0,-6.633786E-1,-1.0049624E0,1.6101068E0,2.3010287E-3],"split_indices":[2207,5092,408,0,0,5092,2655,0,0,0,0],"split_type":[0,0,0,0,0,0,0,0,0,0,0],"sum_hessian":[3.6458E4,2.6E1,3.6432E4,2.1E1,5E0,6.3E1,3.6369E4,3.7E1,2.6E1,1.4E1,3.6355E4],"tree_param":{"num_deleted":"0","num_feature":"5093","num_nodes":"11","size_leaf_vector":"1"}},{"base_weights":[4.7638863E-3,4.152035E0,3.361289E-3,1.0778943E1,3.7824918E-4,4.4168053E0,1.1379006E0,3.9711294E0,-1.6225781E-4],"categories":[],"categories_nodes":[],"categories_segments":[],"categories_sizes":[],"default_left":[0,0,0,0,0,0,0,0,0],"id":36,"left_children":[1,-1,3,5,7,-1,-1,-1,-1],"loss_changes":[1.2499773E3,0E0,1.171233E3,6.075851E2,1.1438347E3,0E0,0E0,0E0,0E0],"parents":[2147483647,0,0,2,2,3,3,4,4],"right_children":[2,-1,4,6,8,-1,-1,-1,-1],"split_conditions":[2.00001E0,4.152035E0,2.00001E0,1.4E-1,2.00001E0,4.4168053E0,1.1379006E0,3.9711294E0,-1.6225781E-4],"split_indices":[4742,0,4556,5092,2626,0,0,0,0],"split_type":[0,0,0,0,0,0,0,0,0],"sum_hessian":[3.6481E4,2E0,3.6479E4,1E1,3.6469E4,2E0,8E0,2E0,3.6467E4],"tree_param":{"num_deleted":"0","num_feature":"5093","num_nodes":"9","size_leaf_vector":"1"}},{"base_weights":[-2.5253449E-2,-7.598741E0,-2.0052444E-2,-7.964585E0,-5.389965E-1,-6.5857697E0,-1.4640466E-2,-1.3009242E0,-1.7830249E0,-1.2027128E0,-6.678118E-1,-1.9427988E-1,2.529795E-3],"categories":[],"categories_nodes":[],"categories_segments":[],"categories_sizes":[],"default_left":[0,0,0,0,0,0,0,0,0,0,0,0,0],"id":37,"left_children":[1,3,5,7,-1,9,11,-1,-1,-1,-1,-1,-1],"loss_changes":[1.4397552E3,3.702539E1,1.2979539E3,8.0321045E0,0E0,3.6805664E1,1.2217898E3,0E0,0E0,0E0,0E0,0E0,0E0],"parents":[2147483647,0,0,1,1,2,2,3,3,5,5,6,6],"right_children":[2,4,6,8,-1,10,12,-1,-1,-1,-1,-1,-1],"split_conditions":[2.00001E0,5.86E0,2.00001E0,5.38E0,-5.389965E-1,3.99E0,2.00001E0,-1.3009242E0,-1.7830249E0,-1.2027128E0,-6.678118E-1,-1.9427988E-1,2.529795E-3],"split_indices":[4011,5092,4368,5092,0,5092,4273,0,0,0,0,0,0],"split_type":[0,0,0,0,0,0,0,0,0,0,0,0,0],"sum_hessian":[3.6576E4,2.5E1,3.6551E4,2.3E1,2E0,3E1,3.6521E4,2.1E1,2E0,2.5E1,5E0,9.3E2,3.5591E4],"tree_param":{"num_deleted":"0","num_feature":"5093","num_nodes":"13","size_leaf_vector":"1"}},{"base_weights":[2.2725761E-2,4.080603E0,2.1356221E-2,-7.118745E0,2.585448E-2,-1.4126503E0,-8.0732274E-1,1.9214133E0,3.9071026E-3],"categories":[],"categories_nodes":[],"categories_segments":[],"categories_sizes":[],"default_left":[0,0,0,0,0,0,0,0,0],"id":38,"left_children":[1,-1,3,5,7,-1,-1,-1,-1],"loss_changes":[1.2055233E3,0E0,1.1776041E3,6.1088623E1,1.1620748E3,0E0,0E0,0E0,0E0],"parents":[2147483647,0,0,2,2,3,3,4,4],"right_children":[2,-1,4,6,8,-1,-1,-1,-1],"split_conditions":[2.00001E0,4.080603E0,2.00001E0,8.15E0,2.00001E0,-1.4126503E0,-8.0732274E-1,1.9214133E0,3.9071026E-3],"split_indices":[1216,0,4154,5092,396,0,0,0,0],"split_type":[0,0,0,0,0,0,0,0,0],"sum_hessian":[3.6694E4,2E0,3.6692E4,2.3E1,3.6669E4,1.5E1,8E0,9E0,3.666E4],"tree_param":{"num_deleted":"0","num_feature":"5093","num_nodes":"9","size_leaf_vector":"1"}},{"base_weights":[-6.5622837E-3,1.0908386E1,-9.857201E-3,1.5395609E0,2.6032107E0,-6.8195252E0,-4.8322855E-3,-8.214753E-1,-1.3175026E0,3.913785E0,-1.0418693E-3],"categories":[],"categories_nodes":[],"categories_segments":[],"categories_sizes":[],"default_left":[0,0,0,0,0,0,0,0,0,0,0],"id":39,"left_children":[1,3,5,-1,-1,7,9,-1,-1,-1,-1],"loss_changes":[1.3209299E3,7.5241455E1,1.2568624E3,0E0,0E0,4.6168335E1,1.1115408E3,0E0,0E0,0E0,0E0],"parents":[2147483647,0,0,1,1,2,2,5,5,6,6],"right_children":[2,4,6,-1,-1,8,10,-1,-1,-1,-1],"split_conditions":[2.00001E0,1.836E1,2.00001E0,1.5395609E0,2.6032107E0,4.16E0,2.00001E0,-8.214753E-1,-1.3175026E0,3.913785E0,-1.0418693E-3],"split_indices":[4150,5092,448,0,0,5092,3621,0,0,0,0],"split_type":[0,0,0,0,0,0,0,0,0,0,0],"sum_hessian":[3.6767E4,1.1E1,3.6756E4,8E0,3E0,2.7E1,3.6729E4,9E0,1.8E1,2E0,3.6727E4],"tree_param":{"num_deleted":"0","num_feature":"5093","num_nodes":"11","size_leaf_vector":"1"}},{"base_weights":[2.1349002E-2,1.5616055E1,1.917555E-2,2.9380255E0,2.0995898E0,3.239587E0,1.7560398E-2,6.757557E-1,1.7015974E-3],"categories":[],"categories_nodes":[],"categories_segments":[],"categories_sizes":[],"default_left":[0,0,0,0,0,0,0,0,0],"id":40,"left_children":[1,3,5,-1,-1,-1,7,-1,-1],"loss_changes":[1.2366202E3,6.3813477E0,1.1242672E3,0E0,0E0,0E0,1.090255E3,0E0,0E0],"parents":[2147483647,0,0,1,1,2,2,6,6],"right_children":[2,4,6,-1,-1,-1,8,-1,-1],"split_conditions":[2.00001E0,5.86E0,2.00001E0,2.9380255E0,2.0995898E0,3.239587E0,2.00001E0,6.757557E-1,1.7015974E-3],"split_indices":[1774,5092,4562,0,0,0,4173,0,0],"split_type":[0,0,0,0,0,0,0,0,0],"sum_hessian":[3.6543E4,5E0,3.6538E4,3E0,2E0,3E0,3.6535E4,6.9E1,3.6466E4],"tree_param":{"num_deleted":"0","num_feature":"5093","num_nodes":"9","size_leaf_vector":"1"}},{"base_weights":[4.0285755E-2,1.1058365E1,3.6939327E-2,2.123078E0,7.054438E-1,1.5816682E1,3.473949E-2,3.4805012E0,1.3797971E0,-2.4679525E0,6.233806E-3],"categories":[],"categories_nodes":[],"categories_segments":[],"categories_sizes":[],"default_left":[0,0,0,0,0,0,0,0,0,0,0],"id":41,"left_children":[1,3,5,-1,-1,7,9,-1,-1,-1,-1],"loss_changes":[1.3460001E3,1.0559534E2,1.2661366E3,0E0,0E0,1.6638623E2,1.0829655E3,0E0,0E0,0E0,0E0],"parents":[2147483647,0,0,1,1,2,2,5,5,6,6],"right_children":[2,4,6,-1,-1,8,10,-1,-1,-1,-1],"split_conditions":[2.00001E0,6.71E0,2.00001E0,2.123078E0,7.054438E-1,4.72E0,2.00001E0,3.4805012E0,1.3797971E0,-2.4679525E0,6.233806E-3],"split_indices":[1967,5092,3302,0,0,5092,2145,0,0,0,0],"split_type":[0,0,0,0,0,0,0,0,0,0,0],"sum_hessian":[3.6544E4,1.1E1,3.6533E4,9E0,2E0,5E0,3.6528E4,3E0,2E0,5E0,3.6523E4],"tree_param":{"num_deleted":"0","num_feature":"5093","num_nodes":"11","size_leaf_vector":"1"}},{"base_weights":[1.7956907E-2,-7.778003E-2,3.558196E-1,3.5340257E0,-7.930629E-2,3.8823316E0,3.4723353E-1,3.4676034E0,-1.3697538E-2,4.7063155E0,5.766447E-2],"categories":[],"categories_nodes":[],"categories_segments":[],"categories_sizes":[],"default_left":[0,0,0,0,0,0,0,0,0,0,0],"id":42,"left_children":[1,3,5,-1,7,-1,9,-1,-1,-1,-1],"loss_changes":[1.1895619E3,9.127235E2,1.5683752E3,0E0,8.789933E2,0E0,1.5668953E3,0E0,0E0,0E0,0E0],"parents":[2147483647,0,0,1,1,2,2,4,4,6,6],"right_children":[2,4,6,-1,8,-1,10,-1,-1,-1,-1],"split_conditions":[3.4E0,2.00001E0,2.00001E0,3.5340257E0,2.00001E0,3.8823316E0,2.00001E0,3.4676034E0,-1.3697538E-2,4.7063155E0,5.766447E-2],"split_indices":[5092,1362,1555,0,3466,0,1461,0,0,0,0],"split_type":[0,0,0,0,0,0,0,0,0,0,0],"sum_hessian":[3.6775E4,2.8655E4,8.12E3,2E0,2.8653E4,3E0,8.117E3,2E0,2.8651E4,2E0,8.115E3],"tree_param":{"num_deleted":"0","num_feature":"5093","num_nodes":"11","size_leaf_vector":"1"}},{"base_weights":[-2.486211E-2,-7.3482256E0,-1.9826012E-2,-1.6068491E0,-6.098474E0,-5.702727E0,-1.4043144E-2,-7.674221E-1,-1.1837516E0,-6.550095E-1,-1.095212E0,-7.736414E-1,-1.1706762E-3],"categories":[],"categories_nodes":[],"categories_segments":[],"categories_sizes":[],"default_left":[0,0,0,0,0,0,0,0,0,0,0,0,0],"id":43,"left_children":[1,3,5,-1,7,9,11,-1,-1,-1,-1,-1,-1],"loss_changes":[1.3462272E3,5.9981934E1,1.1988623E3,0E0,1.8255432E1,4.8299194E1,1.183537E3,0E0,0E0,0E0,0E0,0E0,0E0],"parents":[2147483647,0,0,1,1,2,2,4,4,5,5,6,6],"right_children":[2,4,6,-1,8,10,12,-1,-1,-1,-1,-1,-1],"split_conditions":[2.00001E0,7.9E0,2.00001E0,-1.6068491E0,8.15E0,2.82E0,2.00001E0,-7.674221E-1,-1.1837516E0,-6.550095E-1,-1.095212E0,-7.736414E-1,-1.1706762E-3],"split_indices":[4154,5092,313,0,5092,5092,2255,0,0,0,0,0,0],"split_type":[0,0,0,0,0,0,0,0,0,0,0,0,0],"sum_hessian":[3.6527E4,2.5E1,3.6502E4,9E0,1.6E1,3.7E1,3.6465E4,6E0,1E1,1.1E1,2.6E1,5.7E1,3.6408E4],"tree_param":{"num_deleted":"0","num_feature":"5093","num_nodes":"13","size_leaf_vector":"1"}},{"base_weights":[2.2576315E-2,-7.291475E0,2.7194783E-2,-1.2923006E0,-9.423264E-1,-4.273008E0,3.486196E-2,-3.804324E-1,-7.9330033E-1,1.7142915E0,5.3903502E-3],"categories":[],"categories_nodes":[],"categories_segments":[],"categories_sizes":[],"default_left":[0,0,0,0,0,0,0,0,0,0,0],"id":44,"left_children":[1,3,5,-1,-1,7,9,-1,-1,-1,-1],"loss_changes":[1.2356836E3,8.060059E0,1.205674E3,0E0,0E0,5.19646E1,1.1261254E3,0E0,0E0,0E0,0E0],"parents":[2147483647,0,0,1,1,2,2,5,5,6,6],"right_children":[2,4,6,-1,-1,8,10,-1,-1,-1,-1],"split_conditions":[2.00001E0,5.61E0,2.00001E0,-1.2923006E0,-9.423264E-1,3.8E0,2.00001E0,-3.804324E-1,-7.9330033E-1,1.7142915E0,5.3903502E-3],"split_indices":[2207,5092,2643,0,0,5092,5069,0,0,0,0],"split_type":[0,0,0,0,0,0,0,0,0,0,0],"sum_hessian":[3.6607E4,2.3E1,3.6584E4,1.9E1,4E0,6.5E1,3.6519E4,1.1E1,5.4E1,1.1E1,3.6508E4],"tree_param":{"num_deleted":"0","num_feature":"5093","num_nodes":"11","size_leaf_vector":"1"}},{"base_weights":[3.6315538E-3,1.0002769E1,4.4699744E-5,1.3011378E1,5.0285892E0,-4.746486E0,6.9594346E-3,1.7891282E0,2.8251007E0,5.305185E-1,1.284147E0,-7.3144746E-1,-2.5549057E0,-4.3029556E-1,3.2146615E-3],"categories":[],"categories_nodes":[],"categories_segments":[],"categories_sizes":[],"default_left":[0,0,0,0,0,0,0,0,0,0,0,0,0,0,0],"id":45,"left_children":[1,3,5,7,9,11,13,-1,-1,-1,-1,-1,-1,-1,-1],"loss_changes":[1.3086641E3,1.8804102E2,1.1977067E3,5.4365723E1,2.1251846E1,2.2863147E2,1.1136533E3,0E0,0E0,0E0,0E0,0E0,0E0,0E0,0E0],"parents":[2147483647,0,0,1,1,2,2,3,3,4,4,5,5,6,6],"right_children":[2,4,6,8,10,12,14,-1,-1,-1,-1,-1,-1,-1,-1],"split_conditions":[2.00001E0,4.44E0,2.00001E0,4.16E0,6E0,5.26E0,2.00001E0,1.7891282E0,2.8251007E0,5.305185E-1,1.284147E0,-7.3144746E-1,-2.5549057E0,-4.3029556E-1,3.2146615E-3],"split_indices":[4221,5092,2254,5092,5092,5092,4256,0,0,0,0,0,0,0,0],"split_type":[0,0,0,0,0,0,0,0,0,0,0,0,0,0,0],"sum_hessian":[3.6523E4,1.3E1,3.651E4,8E0,5E0,5.3E1,3.6457E4,5E0,3E0,3E0,2E0,5.1E1,2E0,1.71E2,3.6286E4],"tree_param":{"num_deleted":"0","num_feature":"5093","num_nodes":"15","size_leaf_vector":"1"}},{"base_weights":[-1.8039418E-2,1.1718119E1,-2.063827E-2,1.4385188E1,5.761628E-1,3.8539023E0,-2.1939138E-2,1.3254433E0,3.478107E0,-1.0153086E0,-2.8851735E-3],"categories":[],"categories_nodes":[],"categories_segments":[],"categories_sizes":[],"default_left":[0,0,0,0,0,0,0,0,0,0,0],"id":46,"left_children":[1,3,5,7,-1,-1,9,-1,-1,-1,-1],"loss_changes":[1.1137491E3,1.7302759E2,1.0792971E3,2.2794604E2,0E0,0E0,1.0722268E3,0E0,0E0,0E0,0E0],"parents":[2147483647,0,0,1,1,2,2,3,3,6,6],"right_children":[2,4,6,8,-1,-1,10,-1,-1,-1,-1],"split_conditions":[2.00001E0,3.72E0,2.00001E0,3.01E0,5.761628E-1,3.8539023E0,2.00001E0,1.3254433E0,3.478107E0,-1.0153086E0,-2.8851735E-3],"split_indices":[1804,5092,2920,5092,0,0,412,0,0,0,0],"split_type":[0,0,0,0,0,0,0,0,0,0,0],"sum_hessian":[3.6563E4,8E0,3.6555E4,6E0,2E0,2E0,3.6553E4,3E0,3E0,3E1,3.6523E4],"tree_param":{"num_deleted":"0","num_feature":"5093","num_nodes":"11","size_leaf_vector":"1"}},{"base_weights":[-1.4873043E-2,-6.8256574E0,-9.836596E-3,-3.0666876E0,-7.460395E0,-2.7785234E0,-8.007524E-3,-9.671267E-1,-4.138329E-2,-1.5339537E0,-7.4635845E-1,1.3971072E0,-1.9720187E-3],"categories":[],"categories_nodes":[],"categories_segments":[],"categories_sizes":[],"default_left":[0,0,0,0,0,0,0,0,0,0,0,0,0],"id":47,"left_children":[1,3,5,7,9,-1,11,-1,-1,-1,-1,-1,-1],"loss_changes":[1.2572754E3,6.137683E1,1.0960885E3,2.955484E1,1.0708862E2,0E0,1.0951608E3,0E0,0E0,0E0,0E0,0E0,0E0],"parents":[2147483647,0,0,1,1,2,2,3,3,4,4,6,6],"right_children":[2,4,6,8,10,-1,12,-1,-1,-1,-1,-1,-1],"split_conditions":[2.00001E0,7.04E0,2.00001E0,6.15E0,7.9E0,-2.7785234E0,2.00001E0,-9.671267E-1,-4.138329E-2,-1.5339537E0,-7.4635845E-1,1.3971072E0,-1.9720187E-3],"split_indices":[3095,5092,642,5092,5092,0,3701,0,0,0,0,0,0],"split_type":[0,0,0,0,0,0,0,0,0,0,0,0,0],"sum_hessian":[3.6678E4,2.7E1,3.6651E4,4E0,2.3E1,4E0,3.6647E4,2E0,2E0,1.5E1,8E0,1.6E1,3.6631E4],"tree_param":{"num_deleted":"0","num_feature":"5093","num_nodes":"13","size_leaf_vector":"1"}},{"base_weights":[1.9477855E-3,3.793609E0,6.687498E-4,3.763917E0,-5.9358956E-4,2.6874156E0,-4.014641E-4],"categories":[],"categories_nodes":[],"categories_segments":[],"categories_sizes":[],"default_left":[0,0,0,0,0,0,0],"id":48,"left_children":[1,-1,3,-1,5,-1,-1],"loss_changes":[1.0437073E3,0E0,1.0275504E3,0E0,1.0266969E3,0E0,0E0],"parents":[2147483647,0,0,2,2,4,4],"right_children":[2,-1,4,-1,6,-1,-1],"split_conditions":[2.00001E0,3.793609E0,2.00001E0,3.763917E0,2.00001E0,2.6874156E0,-4.014641E-4],"split_indices":[1668,0,3771,0,4894,0,0],"split_type":[0,0,0,0,0,0,0],"sum_hessian":[3.6564E4,2E0,3.6562E4,2E0,3.656E4,4E0,3.6556E4],"tree_param":{"num_deleted":"0","num_feature":"5093","num_nodes":"7","size_leaf_vector":"1"}},{"base_weights":[6.714187E-6,-6.310819E0,4.6958025E-3,-5.8436575E0,-1.3918653E0,3.7348032E0,3.4337235E-3,-7.249765E-1,-1.044788E0,-7.8279436E-1,1.5736235E-3],"categories":[],"categories_nodes":[],"categories_segments":[],"categories_sizes":[],"default_left":[0,0,0,0,0,0,0,0,0,0,0],"id":49,"left_children":[1,3,5,7,-1,-1,9,-1,-1,-1,-1],"loss_changes":[1.0794718E3,1.8240234E1,1.0113449E3,7.536865E0,0E0,0E0,9.8543207E2,0E0,0E0,0E0,0E0],"parents":[2147483647,0,0,1,1,2,2,3,3,6,6],"right_children":[2,4,6,8,-1,-1,10,-1,-1,-1,-1],"split_conditions":[2.00001E0,4.16E0,2.00001E0,3.25E0,-1.3918653E0,3.7348032E0,2.00001E0,-7.249765E-1,-1.044788E0,-7.8279436E-1,1.5736235E-3],"split_indices":[4886,5092,3235,5092,0,0,4670,0,0,0,0],"split_type":[0,0,0,0,0,0,0,0,0,0,0],"sum_hessian":[3.6505E4,2.7E1,3.6478E4,2.2E1,5E0,2E0,3.6476E4,4E0,1.8E1,4.6E1,3.643E4],"tree_param":{"num_deleted":"0","num_feature":"5093","num_nodes":"11","size_leaf_vector":"1"}},{"base_weights":[2.0298492E-3,5.179632E0,-3.6536753E-3,6.135599E0,3.981174E0,1.196659E1,-5.981201E-3,8.793176E-1,1.7252479E0,3.449133E-1,1.1801107E0,3.2808E0,1.477386E0,1.8849392E0,-1.4324333E-3],"categories":[],"categories_nodes":[],"categories_segments":[],"categories_sizes":[],"default_left":[0,0,0,0,0,0,0,0,0,0,0,0,0,0,0],"id":50,"left_children":[1,3,5,7,9,11,13,-1,-1,-1,-1,-1,-1,-1,-1],"loss_changes":[1.0757395E3,4.2599976E1,1.01527155E3,7.828253E1,1.0259555E2,1.5243085E2,1.0008751E3,0E0,0E0,0E0,0E0,0E0,0E0,0E0,0E0],"parents":[2147483647,0,0,1,1,2,2,3,3,4,4,5,5,6,6],"right_children":[2,4,6,8,10,12,14,-1,-1,-1,-1,-1,-1,-1,-1],"split_conditions":[2.00001E0,3.88E0,2.00001E0,3.72E0,4.62E0,1.4E-1,2.00001E0,8.793176E-1,1.7252479E0,3.449133E-1,1.1801107E0,3.2808E0,1.477386E0,1.8849392E0,-1.4324333E-3],"split_indices":[4183,5092,4941,5092,5092,5092,474,0,0,0,0,0,0,0,0],"split_type":[0,0,0,0,0,0,0,0,0,0,0,0,0,0,0],"sum_hessian":[3.6534E4,4E1,3.6494E4,2.2E1,1.8E1,7E0,3.6487E4,1.8E1,4E0,1.1E1,7E0,2E0,5E0,8E0,3.6479E4],"tree_param":{"num_deleted":"0","num_feature":"5093","num_nodes":"15","size_leaf_vector":"1"}},{"base_weights":[2.0433895E-2,-1.8063416E0,3.6188282E-2,-3.2038364E-1,-1.987475E0,-3.8824713E0,4.3468002E-2,-1.3071896E-1,1.2652703E-1,-2.99457E-1,-4.4328576E-1,-4.8705074E-1,-1.0039343E0,-7.237738E-3,6.1528318E-2],"categories":[],"categories_nodes":[],"categories_segments":[],"categories_sizes":[],"default_left":[0,0,0,0,0,0,0,0,0,0,0,0,0,0,0],"id":51,"left_children":[1,3,5,7,9,11,13,-1,-1,-1,-1,-1,-1,-1,-1],"loss_changes":[1.0504478E3,8.365698E1,1.0320615E3,1.6441185E1,3.7615845E1,1.355805E2,9.9463025E2,0E0,0E0,0E0,0E0,0E0,0E0,0E0,0E0],"parents":[2147483647,0,0,1,1,2,2,3,3,4,4,5,5,6,6],"right_children":[2,4,6,8,10,12,14,-1,-1,-1,-1,-1,-1,-1,-1],"split_conditions":[2.00001E0,2.75E0,2.00001E0,2.57E0,3.83E0,4.81E0,3.4E0,-1.3071896E-1,1.2652703E-1,-2.99457E-1,-4.4328576E-1,-4.8705074E-1,-1.0039343E0,-7.237738E-3,6.1528318E-2],"split_indices":[4561,5092,4083,5092,5092,5092,5092,0,0,0,0,0,0,0,0],"split_type":[0,0,0,0,0,0,0,0,0,0,0,0,0,0,0],"sum_hessian":[3.6507E4,3.12E2,3.6195E4,3.4E1,2.78E2,6.7E1,3.6128E4,2.4E1,1E1,2.06E2,7.2E1,4.5E1,2.2E1,2.8454E4,7.674E3],"tree_param":{"num_deleted":"0","num_feature":"5093","num_nodes":"15","size_leaf_vector":"1"}},{"base_weights":[-7.977887E-3,-3.96343E0,-1.3319032E-3,-3.695713E-1,-4.4256845E0,1.4984649E1,-3.0182062E-3,2.3147054E-3,-2.2877224E-1,-1.2732685E0,-7.1698874E-1,1.0794622E0,3.8879707E0,2.912282E0,-7.5924123E-4],"categories":[],"categories_nodes":[],"categories_segments":[],"categories_sizes":[],"default_left":[0,0,0,0,0,0,0,0,0,0,0,0,0,0,0],"id":52,"left_children":[1,3,5,7,9,11,13,-1,-1,-1,-1,-1,-1,-1,-1],"loss_changes":[9.573038E2,1.0073938E2,9.173335E2,2.8294091E0,2.8569092E1,2.6385297E2,9.107181E2,0E0,0E0,0E0,0E0,0E0,0E0,0E0,0E0],"parents":[2147483647,0,0,1,1,2,2,3,3,4,4,5,5,6,6],"right_children":[2,4,6,8,10,12,14,-1,-1,-1,-1,-1,-1,-1,-1],"split_conditions":[2.00001E0,2.93E0,2.00001E0,2.82E0,3.58E0,7.04E0,2.00001E0,2.3147054E-3,-2.2877224E-1,-1.2732685E0,-7.1698874E-1,1.0794622E0,3.8879707E0,2.912282E0,-7.5924123E-4],"split_indices":[2643,5092,489,5092,5092,5092,4973,0,0,0,0,0,0,0,0],"split_type":[0,0,0,0,0,0,0,0,0,0,0,0,0,0,0],"sum_hessian":[3.6435E4,6.1E1,3.6374E4,7E0,5.4E1,4E0,3.637E4,5E0,2E0,3E0,5.1E1,2E0,2E0,3E0,3.6367E4],"tree_param":{"num_deleted":"0","num_feature":"5093","num_nodes":"15","size_leaf_vector":"1"}},{"base_weights":[1.1356907E-2,9.832175E0,8.116862E-3,-4.180105E-1,1.2304266E1,-8.659362E0,1.1687371E-2,1.8837758E0,2.485867E0,-1.5655434E0,-7.8536487E-1,-1.0573773E0,2.7362097E-3],"categories":[],"categories_nodes":[],"categories_segments":[],"categories_sizes":[],"default_left":[0,0,0,0,0,0,0,0,0,0,0,0,0],"id":53,"left_children":[1,3,5,-1,7,9,11,-1,-1,-1,-1,-1,-1],"loss_changes":[1.1658855E3,3.711714E2,1.1336731E3,0E0,1.1409668E1,2.9646973E1,1.0194315E3,0E0,0E0,0E0,0E0,0E0,0E0],"parents":[2147483647,0,0,1,1,2,2,4,4,5,5,6,6],"right_children":[2,4,6,-1,8,10,12,-1,-1,-1,-1,-1,-1],"split_conditions":[2.00001E0,4.62E0,2.00001E0,-4.180105E-1,6.46E0,4.37E0,2.00001E0,1.8837758E0,2.485867E0,-1.5655434E0,-7.8536487E-1,-1.0573773E0,2.7362097E-3],"split_indices":[4137,5092,2243,0,5092,5092,1834,0,0,0,0,0,0],"split_type":[0,0,0,0,0,0,0,0,0,0,0,0,0],"sum_hessian":[3.6679E4,1.2E1,3.6667E4,2E0,1E1,1.5E1,3.6652E4,7E0,3E0,1.3E1,2E0,2.6E1,3.6626E4],"tree_param":{"num_deleted":"0","num_feature":"5093","num_nodes":"13","size_leaf_vector":"1"}},{"base_weights":[-3.2337117E-3,4.553091E0,-9.203368E-3,2.2053876E0,3.9632738E0,3.5625486E0,-1.0400173E-2,3.1888422E-1,1.1961359E0,1.7990446E0,-2.160119E-3],"categories":[],"categories_nodes":[],"categories_segments":[],"categories_sizes":[],"default_left":[0,0,0,0,0,0,0,0,0,0,0],"id":54,"left_children":[1,3,5,-1,7,-1,9,-1,-1,-1,-1],"loss_changes":[9.9954224E2,2.333775E2,9.214087E2,0E0,2.881001E2,0E0,9.125417E2,0E0,0E0,0E0,0E0],"parents":[2147483647,0,0,1,1,2,2,4,4,6,6],"right_children":[2,4,6,-1,8,-1,10,-1,-1,-1,-1],"split_conditions":[2.00001E0,2.45E0,2.00001E0,2.2053876E0,3.8E0,3.5625486E0,2.00001E0,3.1888422E-1,1.1961359E0,1.7990446E0,-2.160119E-3],"split_indices":[5079,5092,3045,0,5092,0,3337,0,0,0,0],"split_type":[0,0,0,0,0,0,0,0,0,0,0],"sum_hessian":[3.6769E4,4.8E1,3.6721E4,3E0,4.5E1,2E0,3.6719E4,2.7E1,1.8E1,8E0,3.6711E4],"tree_param":{"num_deleted":"0","num_feature":"5093","num_nodes":"11","size_leaf_vector":"1"}},{"base_weights":[-3.9710652E-2,-6.574524E0,-3.5220347E-2,-3.5214777E0,-8.256649E0,2.7334883E0,-3.7030507E-2,-6.7128766E-1,-3.0994383E-1,-1.48223E0,-7.746899E-1,-1.152896E0,-5.5516004E-3],"categories":[],"categories_nodes":[],"categories_segments":[],"categories_sizes":[],"default_left":[0,0,0,0,0,0,0,0,0,0,0,0,0],"id":55,"left_children":[1,3,5,7,9,-1,11,-1,-1,-1,-1,-1,-1],"loss_changes":[1.0719172E3,1.2489905E2,1.0667756E3,5.410614E0,2.3862427E1,0E0,1.0568363E3,0E0,0E0,0E0,0E0,0E0,0E0],"parents":[2147483647,0,0,1,1,2,2,3,3,4,4,6,6],"right_children":[2,4,6,8,10,-1,12,-1,-1,-1,-1,-1,-1],"split_conditions":[2.00001E0,4.22E0,2.00001E0,4.03E0,4.37E0,2.7334883E0,2.00001E0,-6.7128766E-1,-3.0994383E-1,-1.48223E0,-7.746899E-1,-1.152896E0,-5.5516004E-3],"split_indices":[2288,5092,5072,5092,5092,0,4891,0,0,0,0,0,0],"split_type":[0,0,0,0,0,0,0,0,0,0,0,0,0],"sum_hessian":[3.6559E4,2.5E1,3.6534E4,9E0,1.6E1,4E0,3.653E4,7E0,2E0,1.4E1,2E0,2.3E1,3.6507E4],"tree_param":{"num_deleted":"0","num_feature":"5093","num_nodes":"13","size_leaf_vector":"1"}},{"base_weights":[8.971916E-3,-2.2817822E0,1.0839678E-2,3.5266302E0,9.6563455E-3,-6.430547E-1,2.7290243E-3],"categories":[],"categories_nodes":[],"categories_segments":[],"categories_sizes":[],"default_left":[0,0,0,0,0,0,0],"id":56,"left_children":[1,-1,3,-1,5,-1,-1],"loss_changes":[9.2256146E2,0E0,9.011876E2,0E0,8.9950854E2,0E0,0E0],"parents":[2147483647,0,0,2,2,4,4],"right_children":[2,-1,4,-1,6,-1,-1],"split_conditions":[2.00001E0,-2.2817822E0,2.00001E0,3.5266302E0,2.00001E0,-6.430547E-1,2.7290243E-3],"split_indices":[1083,0,3568,0,408,0,0],"split_type":[0,0,0,0,0,0,0],"sum_hessian":[3.6737E4,5E0,3.6732E4,2E0,3.673E4,6.2E1,3.6668E4],"tree_param":{"num_deleted":"0","num_feature":"5093","num_nodes":"7","size_leaf_vector":"1"}},{"base_weights":[-3.111923E-2,-6.0096925E-1,1.9462962E-2,-4.4280725E0,-4.3568763E-1,4.2915206E0,1.1271998E-2,-1.7970959E0,-7.846698E-3,9.2929654E-2,-2.1247956E-1,3.0919245E-1,2.3542674E0,-1.0460176E0,2.7608664E-3],"categories":[],"categories_nodes":[],"categories_segments":[],"categories_sizes":[],"default_left":[0,0,0,0,0,0,0,0,0,0,0,0,0,0,0],"id":57,"left_children":[1,3,5,7,9,11,13,-1,-1,-1,-1,-1,-1,-1,-1],"loss_changes":[1.0514989E3,1.8804849E3,1.1718059E3,3.3280725E3,2.294126E3,1.5134323E3,1.0358967E3,0E0,0E0,0E0,0E0,0E0,0E0,0E0,0E0],"parents":[2147483647,0,0,1,1,2,2,3,3,4,4,5,5,6,6],"right_children":[2,4,6,8,10,12,14,-1,-1,-1,-1,-1,-1,-1,-1],"split_conditions":[6.1E-1,2.00001E0,2.00001E0,1.4E-1,1.4E-1,1.61E0,2.00001E0,-1.7970959E0,-7.846698E-3,9.2929654E-2,-2.1247956E-1,3.0919245E-1,2.3542674E0,-1.0460176E0,2.7608664E-3],"split_indices":[5092,4978,386,5092,5092,5092,448,0,0,0,0,0,0,0,0],"split_type":[0,0,0,0,0,0,0,0,0,0,0,0,0,0,0],"sum_hessian":[3.6477E4,2.974E3,3.3503E4,1.23E2,2.851E3,6.4E1,3.3439E4,5.1E1,7.2E1,1.294E3,1.557E3,5.1E1,1.3E1,2.7E1,3.3412E4],"tree_param":{"num_deleted":"0","num_feature":"5093","num_nodes":"15","size_leaf_vector":"1"}},{"base_weights":[3.528221E-2,1.3022389E1,3.311577E-2,1.4453235E0,3.6016576E0,-2.7738752E0,4.291788E-2,-4.9230108E-1,4.2436734E-1,2.1707282E0,6.913E-3],"categories":[],"categories_nodes":[],"categories_segments":[],"categories_sizes":[],"default_left":[0,0,0,0,0,0,0,0,0,0,0],"id":58,"left_children":[1,3,5,-1,-1,7,9,-1,-1,-1,-1],"loss_changes":[1.0263551E3,2.0600122E2,1.0048277E3,0E0,0E0,8.804828E1,9.911754E2,0E0,0E0,0E0,0E0],"parents":[2147483647,0,0,1,1,2,2,5,5,6,6],"right_children":[2,4,6,-1,-1,8,10,-1,-1,-1,-1],"split_conditions":[2.00001E0,6.15E0,2.00001E0,1.4453235E0,3.6016576E0,7.65E0,2.00001E0,-4.9230108E-1,4.2436734E-1,2.1707282E0,6.913E-3],"split_indices":[3301,5092,4019,0,0,5092,4049,0,0,0,0],"split_type":[0,0,0,0,0,0,0,0,0,0,0],"sum_hessian":[3.6538E4,6E0,3.6532E4,4E0,2E0,1.27E2,3.6405E4,1.24E2,3E0,6E0,3.6399E4],"tree_param":{"num_deleted":"0","num_feature":"5093","num_nodes":"11","size_leaf_vector":"1"}},{"base_weights":[-4.7938037E-3,1.1101763E1,-7.24962E-3,2.5015905E0,1.6401043E0,-2.4292784E0,3.2501605E-3,-3.324492E-1,-8.7371814E-1,-6.566781E-1,1.6184864E-3],"categories":[],"categories_nodes":[],"categories_segments":[],"categories_sizes":[],"default_left":[0,0,0,0,0,0,0,0,0,0,0],"id":59,"left_children":[1,3,5,-1,-1,7,9,-1,-1,-1,-1],"loss_changes":[9.9745435E2,2.7072998E1,9.31378E2,0E0,0E0,1.9990149E2,8.8959845E2,0E0,0E0,0E0,0E0],"parents":[2147483647,0,0,1,1,2,2,5,5,6,6],"right_children":[2,4,6,-1,-1,8,10,-1,-1,-1,-1],"split_conditions":[2.00001E0,7.23E0,2.00001E0,2.5015905E0,1.6401043E0,3.04E0,2.00001E0,-3.324492E-1,-8.7371814E-1,-6.566781E-1,1.6184864E-3],"split_indices":[4690,5092,4256,0,0,5092,2254,0,0,0,0],"split_type":[0,0,0,0,0,0,0,0,0,0,0],"sum_hessian":[3.662E4,8E0,3.6612E4,2E0,6E0,1.58E2,3.6454E4,1.35E2,2.3E1,5.9E1,3.6395E4],"tree_param":{"num_deleted":"0","num_feature":"5093","num_nodes":"11","size_leaf_vector":"1"}},{"base_weights":[-2.8210862E-2,-1.0573394E0,-2.3806121E-2,-2.3302453E0,-2.1906456E-2,2.581005E0,-4.000982E-3],"categories":[],"categories_nodes":[],"categories_segments":[],"categories_sizes":[],"default_left":[0,0,0,0,0,0,0],"id":60,"left_children":[1,-1,3,-1,5,-1,-1],"loss_changes":[1.00637024E3,0E0,9.575512E2,0E0,9.496614E2,0E0,0E0],"parents":[2147483647,0,0,2,2,4,4],"right_children":[2,-1,4,-1,6,-1,-1],"split_conditions":[2.00001E0,-1.0573394E0,2.00001E0,-2.3302453E0,2.00001E0,2.581005E0,-4.000982E-3],"split_indices":[4011,0,1666,0,1774,0,0],"split_type":[0,0,0,0,0,0,0],"sum_hessian":[3.6825E4,2.6E1,3.6799E4,5E0,3.6794E4,4E0,3.679E4],"tree_param":{"num_deleted":"0","num_feature":"5093","num_nodes":"7","size_leaf_vector":"1"}},{"base_weights":[3.0970069E-2,1.4055818E0,-2.1027235E-2,-1.4474761E0,1.6971222E0,-1.0030452E0,2.191879E-2,-2.711455E0,3.1114703E-1,1.9184669E0,-1.7297886E-1,2.554956E0,3.4071975E-3],"categories":[],"categories_nodes":[],"categories_segments":[],"categories_sizes":[],"default_left":[0,0,0,0,0,0,0,0,0,0,0,0,0],"id":61,"left_children":[1,3,5,-1,7,9,11,-1,-1,-1,-1,-1,-1],"loss_changes":[2.6220686E3,3.8768718E3,1.49076E3,0E0,3.1814705E3,3.169818E2,9.252181E2,0E0,0E0,0E0,0E0,0E0,0E0],"parents":[2147483647,0,0,1,1,2,2,4,4,5,5,6,6],"right_children":[2,4,6,-1,8,10,12,-1,-1,-1,-1,-1,-1],"split_conditions":[1.4E-1,2.00001E0,6E-1,-1.4474761E0,2.00001E0,2.00001E0,2.00001E0,-2.711455E0,3.1114703E-1,1.9184669E0,-1.7297886E-1,2.554956E0,3.4071975E-3],"split_indices":[5092,4978,5092,0,4120,1461,4210,0,0,0,0,0,0],"split_type":[0,0,0,0,0,0,0,0,0,0,0,0,0],"sum_hessian":[3.6682E4,1.337E3,3.5345E4,3.8E1,1.299E3,1.481E3,3.3864E4,1E1,1.289E3,2E0,1.479E3,4E0,3.386E4],"tree_param":{"num_deleted":"0","num_feature":"5093","num_nodes":"13","size_leaf_vector":"1"}},{"base_weights":[-4.8187687E-3,-2.3986516E0,-2.4624201E-3,2.6022058E0,-4.1803853E-3,9.865696E-1,-1.4679221E-3],"categories":[],"categories_nodes":[],"categories_segments":[],"categories_sizes":[],"default_left":[0,0,0,0,0,0,0],"id":62,"left_children":[1,-1,3,-1,5,-1,-1],"loss_changes":[1.2175817E3,0E0,9.628594E2,0E0,9.533654E2,0E0,0E0],"parents":[2147483647,0,0,2,2,4,4],"right_children":[2,-1,4,-1,6,-1,-1],"split_conditions":[2.00001E0,-2.3986516E0,2.00001E0,2.6022058E0,2.00001E0,9.865696E-1,-1.4679221E-3],"split_indices":[642,0,666,0,3800,0,0],"split_type":[0,0,0,0,0,0,0],"sum_hessian":[3.6583E4,6E0,3.6577E4,4E0,3.6573E4,2.8E1,3.6545E4],"tree_param":{"num_deleted":"0","num_feature":"5093","num_nodes":"7","size_leaf_vector":"1"}},{"base_weights":[2.9867047E-2,3.6071405E0,2.8650016E-2,-9.507095E-1,5.46045E-2,-2.111376E0,-1.3578378E-1,-1.7908877E0,9.666276E-3],"categories":[],"categories_nodes":[],"categories_segments":[],"categories_sizes":[],"default_left":[0,0,0,0,0,0,0,0,0],"id":63,"left_children":[1,-1,3,5,7,-1,-1,-1,-1],"loss_changes":[9.411354E2,0E0,9.2755237E2,1.6199656E3,9.118868E2,0E0,0E0,0E0,0E0],"parents":[2147483647,0,0,2,2,3,3,4,4],"right_children":[2,-1,4,6,8,-1,-1,-1,-1],"split_conditions":[2.00001E0,3.6071405E0,2.00001E0,1.4E-1,2.00001E0,-2.111376E0,-1.3578378E-1,-1.7908877E0,9.666276E-3],"split_indices":[4602,0,4273,5092,2846,0,0,0,0],"split_type":[0,0,0,0,0,0,0,0,0],"sum_hessian":[3.6497E4,2E0,3.6495E4,9.42E2,3.5553E4,1.2E1,9.3E2,8E0,3.5545E4],"tree_param":{"num_deleted":"0","num_feature":"5093","num_nodes":"9","size_leaf_vector":"1"}},{"base_weights":[2.2423049E-3,7.8957005E0,-1.217735E-3,1.1707928E1,3.9857373E0,-3.9010458E0,5.288228E-3,1.7276075E0,2.3473575E0,1.6462821E-1,9.702704E-1,-7.0420694E-1,1.5820655E-1,2.9014847E0,6.5137906E-4],"categories":[],"categories_nodes":[],"categories_segments":[],"categories_sizes":[],"default_left":[0,0,0,0,0,0,0,0,0,0,0,0,0,0,0],"id":64,"left_children":[1,3,5,7,9,11,13,-1,-1,-1,-1,-1,-1,-1,-1],"loss_changes":[1.0025931E3,2.3385077E2,9.3055817E2,1.1335327E1,4.105072E1,7.549982E1,9.0309924E2,0E0,0E0,0E0,0E0,0E0,0E0,0E0,0E0],"parents":[2147483647,0,0,1,1,2,2,3,3,4,4,5,5,6,6],"right_children":[2,4,6,8,10,12,14,-1,-1,-1,-1,-1,-1,-1,-1],"split_conditions":[2.00001E0,4.44E0,2.00001E0,4.16E0,6E0,3.93E0,2.00001E0,1.7276075E0,2.3473575E0,1.6462821E-1,9.702704E-1,-7.0420694E-1,1.5820655E-1,2.9014847E0,6.5137906E-4],"split_indices":[4221,5092,2221,5092,5092,5092,3654,0,0,0,0,0,0,0,0],"split_type":[0,0,0,0,0,0,0,0,0,0,0,0,0,0,0],"sum_hessian":[3.6673E4,1.6E1,3.6657E4,8E0,8E0,6.1E1,3.6596E4,5E0,3E0,3E0,5E0,5.8E1,3E0,3E0,3.6593E4],"tree_param":{"num_deleted":"0","num_feature":"5093","num_nodes":"15","size_leaf_vector":"1"}},{"base_weights":[-7.3632477E-3,5.7255206E0,-1.174553E-2,2.8707051E0,4.806579E0,1.3097957E1,-1.3561936E-2,1.3070989E0,5.8974093E-1,1.3555307E0,2.7371802E0,5.020276E-1,-3.6210876E-3],"categories":[],"categories_nodes":[],"categories_segments":[],"categories_sizes":[],"default_left":[0,0,0,0,0,0,0,0,0,0,0,0,0],"id":65,"left_children":[1,3,5,-1,7,9,11,-1,-1,-1,-1,-1,-1],"loss_changes":[9.2372235E2,2.7970935E2,8.7391797E2,0E0,9.691077E1,6.518884E1,8.5270435E2,0E0,0E0,0E0,0E0,0E0,0E0],"parents":[2147483647,0,0,1,1,2,2,4,4,5,5,6,6],"right_children":[2,4,6,-1,8,10,12,-1,-1,-1,-1,-1,-1],"split_conditions":[2.00001E0,3.45E0,2.00001E0,2.8707051E0,4.16E0,1.116E1,2.00001E0,1.3070989E0,5.8974093E-1,1.3555307E0,2.7371802E0,5.020276E-1,-3.6210876E-3],"split_indices":[4192,5092,1647,0,5092,5092,5060,0,0,0,0,0,0],"split_type":[0,0,0,0,0,0,0,0,0,0,0,0,0],"sum_hessian":[3.6796E4,2.8E1,3.6768E4,2E0,2.6E1,5E0,3.6763E4,8E0,1.8E1,2E0,3E0,9.6E1,3.6667E4],"tree_param":{"num_deleted":"0","num_feature":"5093","num_nodes":"13","size_leaf_vector":"1"}},{"base_weights":[-0E0,3.4001784E0,-1.1412873E-3,3.378949E0,-2.2814553E-3,3.3716736E0,-5.796229E-4],"categories":[],"categories_nodes":[],"categories_segments":[],"categories_sizes":[],"default_left":[0,0,0,0,0,0,0],"id":66,"left_children":[1,-1,3,-1,5,-1,-1],"loss_changes":[8.385956E2,0E0,8.2825214E2,0E0,8.2478424E2,0E0,0E0],"parents":[2147483647,0,0,2,2,4,4],"right_children":[2,-1,4,-1,6,-1,-1],"split_conditions":[2.00001E0,3.4001784E0,2.00001E0,3.378949E0,2.00001E0,3.3716736E0,-5.796229E-4],"split_indices":[1227,0,1219,0,2418,0,0],"split_type":[0,0,0,0,0,0,0],"sum_hessian":[3.6553E4,2E0,3.6551E4,2E0,3.6549E4,2E0,3.6547E4],"tree_param":{"num_deleted":"0","num_feature":"5093","num_nodes":"7","size_leaf_vector":"1"}},{"base_weights":[-8.23933E-3,3.410766E0,-9.3886405E-3,-1.3934721E0,6.8282913E-3,-2.5865155E-1,2.6754022E-1,3.363594E0,9.6323737E-4],"categories":[],"categories_nodes":[],"categories_segments":[],"categories_sizes":[],"default_left":[0,0,0,0,0,0,0,0,0],"id":67,"left_children":[1,-1,3,5,7,-1,-1,-1,-1],"loss_changes":[8.445199E2,0E0,8.2193176E2,1.670058E2,8.2008136E2,0E0,0E0,0E0,0E0],"parents":[2147483647,0,0,2,2,3,3,4,4],"right_children":[2,-1,4,6,8,-1,-1,-1,-1],"split_conditions":[2.00001E0,3.410766E0,2.00001E0,2.75E0,2.00001E0,-2.5865155E-1,2.6754022E-1,3.363594E0,9.6323737E-4],"split_indices":[4742,0,4096,5092,3048,0,0,0,0],"split_type":[0,0,0,0,0,0,0,0,0],"sum_hessian":[3.6613E4,2E0,3.6611E4,4.24E2,3.6187E4,4.06E2,1.8E1,2E0,3.6185E4],"tree_param":{"num_deleted":"0","num_feature":"5093","num_nodes":"9","size_leaf_vector":"1"}},{"base_weights":[-8.800862E-3,-4.5481315E0,-3.192975E-3,-6.24771E-1,-5.264588E0,-5.89943E0,1.0184073E-3,4.4195703E-3,-1.922369E-1,-9.291206E-1,-4.4376993E-1,-1.0595983E0,-5.2009684E-1,1.3835236E0,-3.2298637E-4],"categories":[],"categories_nodes":[],"categories_segments":[],"categories_sizes":[],"default_left":[0,0,0,0,0,0,0,0,0,0,0,0,0,0,0],"id":68,"left_children":[1,3,5,7,9,11,13,-1,-1,-1,-1,-1,-1,-1,-1],"loss_changes":[9.3012976E2,1.2571344E2,9.0748126E2,2.489341E0,1.9596436E1,2.316455E1,8.716682E2,0E0,0E0,0E0,0E0,0E0,0E0,0E0,0E0],"parents":[2147483647,0,0,1,1,2,2,3,3,4,4,5,5,6,6],"right_children":[2,4,6,8,10,12,14,-1,-1,-1,-1,-1,-1,-1,-1],"split_conditions":[2.00001E0,2.9E0,2.00001E0,2.5E0,4.92E0,4.22E0,2.00001E0,4.4195703E-3,-1.922369E-1,-9.291206E-1,-4.4376993E-1,-1.0595983E0,-5.2009684E-1,1.3835236E0,-3.2298637E-4],"split_indices":[4670,5092,4368,5092,5092,5092,1967,0,0,0,0,0,0,0,0],"split_type":[0,0,0,0,0,0,0,0,0,0,0,0,0,0,0],"sum_hessian":[3.6561E4,4.5E1,3.6516E4,7E0,3.8E1,2.6E1,3.649E4,3E0,4E0,3.5E1,3E0,2.3E1,3E0,1.3E1,3.6477E4],"tree_param":{"num_deleted":"0","num_feature":"5093","num_nodes":"15","size_leaf_vector":"1"}},{"base_weights":[-5.584538E-3,1.1788937E1,-7.550057E-3,7.2508144E-1,1.534842E1,-1.1717152E1,-5.5983146E-3,1.8949226E0,3.1933486E0,-2.7631614E0,-3.733323E-1,2.1133976E0,-1.2435914E-3],"categories":[],"categories_nodes":[],"categories_segments":[],"categories_sizes":[],"default_left":[0,0,0,0,0,0,0,0,0,0,0,0,0],"id":69,"left_children":[1,3,5,-1,7,9,11,-1,-1,-1,-1,-1,-1],"loss_changes":[8.4652124E2,1.5468872E2,8.3437213E2,0E0,3.794104E1,2.5998334E2,7.910803E2,0E0,0E0,0E0,0E0,0E0,0E0],"parents":[2147483647,0,0,1,1,2,2,4,4,5,5,6,6],"right_children":[2,4,6,-1,8,10,12,-1,-1,-1,-1,-1,-1],"split_conditions":[2.00001E0,3.69E0,2.00001E0,7.2508144E-1,3.83E0,1.4E-1,2.00001E0,1.8949226E0,3.1933486E0,-2.7631614E0,-3.733323E-1,2.1133976E0,-1.2435914E-3],"split_indices":[3337,5092,1505,0,5092,5092,116,0,0,0,0,0,0],"split_type":[0,0,0,0,0,0,0,0,0,0,0,0,0],"sum_hessian":[3.6579E4,6E0,3.6573E4,2E0,4E0,6E0,3.6567E4,2E0,2E0,4E0,2E0,5E0,3.6562E4],"tree_param":{"num_deleted":"0","num_feature":"5093","num_nodes":"13","size_leaf_vector":"1"}},{"base_weights":[-2.1753015E-3,3.3856711E0,-3.3168506E-3,2.1667562E0,-5.097582E-3,5.6254524E-1,-1.9618506E-3],"categories":[],"categories_nodes":[],"categories_segments":[],"categories_sizes":[],"default_left":[0,0,0,0,0,0,0],"id":70,"left_children":[1,-1,3,-1,5,-1,-1],"loss_changes":[8.316371E2,0E0,8.312147E2,0E0,7.867762E2,0E0,0E0],"parents":[2147483647,0,0,2,2,4,4],"right_children":[2,-1,4,-1,6,-1,-1],"split_conditions":[2.00001E0,3.3856711E0,2.00001E0,2.1667562E0,2.00001E0,5.6254524E-1,-1.9618506E-3],"split_indices":[4284,0,1804,0,4173,0,0],"split_type":[0,0,0,0,0,0,0],"sum_hessian":[3.6581E4,2E0,3.6579E4,5E0,3.6574E4,7.1E1,3.6503E4],"tree_param":{"num_deleted":"0","num_feature":"5093","num_nodes":"7","size_leaf_vector":"1"}},{"base_weights":[-6.7996294E-3,-5.8982263E0,-2.9144264E-3,-6.479518E0,7.447512E-2,4.567281E0,-7.809728E-3,-1.3443732E0,-1.0365303E0,1.1373335E0,3.4609637E-1,1.7003651E0,-1.7012808E-3],"categories":[],"categories_nodes":[],"categories_segments":[],"categories_sizes":[],"default_left":[0,0,0,0,0,0,0,0,0,0,0,0,0],"id":71,"left_children":[1,3,5,7,-1,9,11,-1,-1,-1,-1,-1,-1],"loss_changes":[8.364866E2,8.97218E1,8.172152E2,5.8498535E0,0E0,2.0919476E2,8.148521E2,0E0,0E0,0E0,0E0,0E0,0E0],"parents":[2147483647,0,0,1,1,2,2,3,3,5,5,6,6],"right_children":[2,4,6,8,-1,10,12,-1,-1,-1,-1,-1,-1],"split_conditions":[2.00001E0,8.83E0,2.00001E0,7.65E0,7.447512E-2,3.88E0,2.00001E0,-1.3443732E0,-1.0365303E0,1.1373335E0,3.4609637E-1,1.7003651E0,-1.7012808E-3],"split_indices":[4154,5092,4183,5092,0,5092,396,0,0,0,0,0,0],"split_type":[0,0,0,0,0,0,0,0,0,0,0,0,0],"sum_hessian":[3.6577E4,2.4E1,3.6553E4,2.2E1,2E0,3.9E1,3.6514E4,4E0,1.8E1,2.1E1,1.8E1,8E0,3.6506E4],"tree_param":{"num_deleted":"0","num_feature":"5093","num_nodes":"13","size_leaf_vector":"1"}},{"base_weights":[1.9923229E-2,3.4060237E0,1.87773E-2,-5.754775E0,2.2738285E-2,-1.1909161E0,-8.4744054E-1,7.828566E-1,3.0849874E-3],"categories":[],"categories_nodes":[],"categories_segments":[],"categories_sizes":[],"default_left":[0,0,0,0,0,0,0,0,0],"id":72,"left_children":[1,-1,3,5,7,-1,-1,-1,-1],"loss_changes":[8.398089E2,0E0,8.367334E2,1.9619019E1,7.627879E2,0E0,0E0,0E0,0E0],"parents":[2147483647,0,0,2,2,3,3,4,4],"right_children":[2,-1,4,6,8,-1,-1,-1,-1],"split_conditions":[2.00001E0,3.4060237E0,2.00001E0,7.42E0,2.00001E0,-1.1909161E0,-8.4744054E-1,7.828566E-1,3.0849874E-3],"split_indices":[1216,0,3095,5092,5028,0,0,0,0],"split_type":[0,0,0,0,0,0,0,0,0],"sum_hessian":[3.6621E4,2E0,3.6619E4,2.5E1,3.6594E4,9E0,1.6E1,3.6E1,3.6558E4],"tree_param":{"num_deleted":"0","num_feature":"5093","num_nodes":"9","size_leaf_vector":"1"}},{"base_weights":[1.4967484E-2,-7.196523E0,1.9915633E-2,-2.1422846E0,-2.1665907E-1,-2.0274155E0,2.1911757E-2,9.049289E-2,-6.791182E-2,3.4244506E0,3.518855E-3],"categories":[],"categories_nodes":[],"categories_segments":[],"categories_sizes":[],"default_left":[0,0,0,0,0,0,0,0,0,0,0],"id":73,"left_children":[1,3,5,-1,7,-1,9,-1,-1,-1,-1],"loss_changes":[1.3054187E3,9.508291E2,8.733598E2,0E0,1.531662E0,0E0,8.487617E2,0E0,0E0,0E0,0E0],"parents":[2147483647,0,0,1,1,2,2,4,4,6,6],"right_children":[2,4,6,-1,8,-1,10,-1,-1,-1,-1],"split_conditions":[2.00001E0,1.4E-1,2.00001E0,-2.1422846E0,9.2E-1,-2.0274155E0,2.00001E0,9.049289E-2,-6.791182E-2,3.4244506E0,3.518855E-3],"split_indices":[1461,5092,2145,0,5092,0,1085,0,0,0,0],"split_type":[0,0,0,0,0,0,0,0,0,0,0],"sum_hessian":[3.6608E4,2.5E1,3.6583E4,1.4E1,1.1E1,6E0,3.6577E4,2E0,9E0,2E0,3.6575E4],"tree_param":{"num_deleted":"0","num_feature":"5093","num_nodes":"11","size_leaf_vector":"1"}},{"base_weights":[-5.5186306E-3,2.8841574E0,-6.9585717E-3,-1.8122361E0,-4.8834756E-3,3.2929754E0,-1.016318E-3],"categories":[],"categories_nodes":[],"categories_segments":[],"categories_sizes":[],"default_left":[0,0,0,0,0,0,0],"id":74,"left_children":[1,-1,3,-1,5,-1,-1],"loss_changes":[8.934787E2,0E0,8.0876495E2,0E0,7.869469E2,0E0,0E0],"parents":[2147483647,0,0,2,2,4,4],"right_children":[2,-1,4,-1,6,-1,-1],"split_conditions":[2.00001E0,2.8841574E0,2.00001E0,-1.8122361E0,2.00001E0,3.2929754E0,-1.016318E-3],"split_indices":[3302,0,1705,0,3380,0,0],"split_type":[0,0,0,0,0,0,0],"sum_hessian":[3.6544E4,3E0,3.6541E4,7E0,3.6534E4,2E0,3.6532E4],"tree_param":{"num_deleted":"0","num_feature":"5093","num_nodes":"7","size_leaf_vector":"1"}},{"base_weights":[4.692988E-3,3.6541092E0,3.467049E-3,-4.908196E0,8.566801E-3,8.4299946E-1,-9.274077E-1,1.4825591E0,1.0042086E-3],"categories":[],"categories_nodes":[],"categories_segments":[],"categories_sizes":[],"default_left":[0,0,0,0,0,0,0,0,0],"id":75,"left_children":[1,-1,3,5,7,-1,-1,-1,-1],"loss_changes":[9.681054E2,0E0,9.1971533E2,2.1412634E2,8.4643066E2,0E0,0E0,0E0,0E0],"parents":[2147483647,0,0,2,2,3,3,4,4],"right_children":[2,-1,4,6,8,-1,-1,-1,-1],"split_conditions":[2.00001E0,3.6541092E0,2.00001E0,3.9E-1,2.00001E0,8.4299946E-1,-9.274077E-1,1.4825591E0,1.0042086E-3],"split_indices":[4413,0,4886,5092,4150,0,0,0,0],"split_type":[0,0,0,0,0,0,0,0,0],"sum_hessian":[3.6744E4,2E0,3.6742E4,3.8E1,3.6704E4,2E0,3.6E1,1.1E1,3.6693E4],"tree_param":{"num_deleted":"0","num_feature":"5093","num_nodes":"9","size_leaf_vector":"1"}},{"base_weights":[5.050223E-3,1.8695477E0,2.615926E-3,-1.2462707E0,5.8474047E-3,3.3511505E0,8.000891E-4],"categories":[],"categories_nodes":[],"categories_segments":[],"categories_sizes":[],"default_left":[0,0,0,0,0,0,0],"id":76,"left_children":[1,-1,3,-1,5,-1,-1],"loss_changes":[9.826337E2,0E0,8.703786E2,0E0,8.1410315E2,0E0,0E0],"parents":[2147483647,0,0,2,2,4,4],"right_children":[2,-1,4,-1,6,-1,-1],"split_conditions":[2.00001E0,1.8695477E0,2.00001E0,-1.2462707E0,2.00001E0,3.3511505E0,8.000891E-4],"split_indices":[4150,0,4118,0,1200,0,0],"split_type":[0,0,0,0,0,0,0],"sum_hessian":[3.6669E4,8E0,3.6661E4,1.6E1,3.6645E4,2E0,3.6643E4],"tree_param":{"num_deleted":"0","num_feature":"5093","num_nodes":"7","size_leaf_vector":"1"}},{"base_weights":[-2.4476396E-2,2.7746646E0,-2.5867678E-2,2.3331397E0,-2.7417263E-2,3.232606E0,-4.8334585E-3],"categories":[],"categories_nodes":[],"categories_segments":[],"categories_sizes":[],"default_left":[0,0,0,0,0,0,0],"id":77,"left_children":[1,-1,3,-1,5,-1,-1],"loss_changes":[8.2886957E2,0E0,7.767052E2,0E0,7.6016315E2,0E0,0E0],"parents":[2147483647,0,0,2,2,4,4],"right_children":[2,-1,4,-1,6,-1,-1],"split_conditions":[2.00001E0,2.7746646E0,2.00001E0,2.3331397E0,2.00001E0,3.232606E0,-4.8334585E-3],"split_indices":[1924,0,4396,0,3621,0,0],"split_type":[0,0,0,0,0,0,0],"sum_hessian":[3.6431E4,3E0,3.6428E4,4E0,3.6424E4,2E0,3.6422E4],"tree_param":{"num_deleted":"0","num_feature":"5093","num_nodes":"7","size_leaf_vector":"1"}},{"base_weights":[-6.145779E-3,1.9712497E0,-8.097605E-3,2.2199147E0,-1.7652107E-2,-1.1105419E0,4.2660737E-1,-2.291124E0,-2.733357E-3],"categories":[],"categories_nodes":[],"categories_segments":[],"categories_sizes":[],"default_left":[0,0,0,0,0,0,0,0,0],"id":78,"left_children":[1,-1,3,5,7,-1,-1,-1,-1],"loss_changes":[8.237654E2,0E0,7.731485E2,4.045033E2,7.442179E2,0E0,0E0,0E0,0E0],"parents":[2147483647,0,0,2,2,3,3,4,4],"right_children":[2,-1,4,6,8,-1,-1,-1,-1],"split_conditions":[2.00001E0,1.9712497E0,2.00001E0,1.4E-1,2.00001E0,-1.1105419E0,4.2660737E-1,-2.291124E0,-2.733357E-3],"split_indices":[4116,0,5014,5092,1629,0,0,0,0],"split_type":[0,0,0,0,0,0,0,0,0],"sum_hessian":[3.6338E4,6E0,3.6332E4,1.55E2,3.6177E4,5E0,1.5E2,4E0,3.6173E4],"tree_param":{"num_deleted":"0","num_feature":"5093","num_nodes":"9","size_leaf_vector":"1"}},{"base_weights":[-3.337732E-2,-3.6961954E0,-2.7061075E-2,-2.7360587E0,-1.0395011E0,2.6547203E0,-2.8386407E-2,-1.4006224E-1,-1.027574E0,1.8695564E0,-5.1241284E-3],"categories":[],"categories_nodes":[],"categories_segments":[],"categories_sizes":[],"default_left":[0,0,0,0,0,0,0,0,0,0,0],"id":79,"left_children":[1,3,5,-1,7,-1,9,-1,-1,-1,-1],"loss_changes":[8.4780444E2,2.0820457E3,7.591103E2,0E0,5.4498146E1,0E0,7.4400183E2,0E0,0E0,0E0,0E0],"parents":[2147483647,0,0,1,1,2,2,4,4,6,6],"right_children":[2,4,6,-1,8,-1,10,-1,-1,-1,-1],"split_conditions":[2.00001E0,1.4E-1,2.00001E0,-2.7360587E0,1.31E0,2.6547203E0,2.00001E0,-1.4006224E-1,-1.027574E0,1.8695564E0,-5.1241284E-3],"split_indices":[2260,5092,4562,0,5092,0,2885,0,0,0,0],"split_type":[0,0,0,0,0,0,0,0,0,0,0],"sum_hessian":[3.6666E4,6.3E1,3.6603E4,1.1E1,5.2E1,3E0,3.66E4,5E1,2E0,6E0,3.6594E4],"tree_param":{"num_deleted":"0","num_feature":"5093","num_nodes":"11","size_leaf_vector":"1"}},{"base_weights":[-2.725535E-2,1.1368943E1,-2.9155906E-2,1.3264372E0,3.0164232E0,3.2818093E0,-3.0265052E-2,-2.657187E-1,-2.8635105E-3],"categories":[],"categories_nodes":[],"categories_segments":[],"categories_sizes":[],"default_left":[0,0,0,0,0,0,0,0,0],"id":80,"left_children":[1,3,5,-1,-1,-1,7,-1,-1],"loss_changes":[7.903151E2,1.2361749E2,7.8358716E2,0E0,0E0,0E0,7.510662E2,0E0,0E0],"parents":[2147483647,0,0,1,1,2,2,6,6],"right_children":[2,4,6,-1,-1,-1,8,-1,-1],"split_conditions":[2.00001E0,6.15E0,2.00001E0,1.3264372E0,3.0164232E0,3.2818093E0,2.00001E0,-2.657187E-1,-2.8635105E-3],"split_indices":[3301,5092,2626,0,0,0,4561,0,0],"split_type":[0,0,0,0,0,0,0,0,0],"sum_hessian":[3.6553E4,6E0,3.6547E4,4E0,2E0,2E0,3.6545E4,3.15E2,3.623E4],"tree_param":{"num_deleted":"0","num_feature":"5093","num_nodes":"9","size_leaf_vector":"1"}},{"base_weights":[1.920013E-2,-2.375576E0,2.0772519E-2,-1.8991792E0,3.1828523E-2,-2.235846E0,-3.0244341E-1,3.20801E0,5.211026E-3],"categories":[],"categories_nodes":[],"categories_segments":[],"categories_sizes":[],"default_left":[0,0,0,0,0,0,0,0,0],"id":81,"left_children":[1,-1,3,5,7,-1,-1,-1,-1],"loss_changes":[8.043958E2,0E0,7.7517395E2,2.6764423E2,7.4396796E2,0E0,0E0,0E0,0E0],"parents":[2147483647,0,0,2,2,3,3,4,4],"right_children":[2,-1,4,6,8,-1,-1,-1,-1],"split_conditions":[2.00001E0,-2.375576E0,2.00001E0,1.4E-1,2.00001E0,-2.235846E0,-3.0244341E-1,3.20801E0,5.211026E-3],"split_indices":[719,0,3354,5092,4613,0,0,0,0],"split_type":[0,0,0,0,0,0,0,0,0],"sum_hessian":[3.6533E4,4E0,3.6529E4,2.09E2,3.632E4,2E0,2.07E2,2E0,3.6318E4],"tree_param":{"num_deleted":"0","num_feature":"5093","num_nodes":"9","size_leaf_vector":"1"}},{"base_weights":[1.673608E-2,-3.991688E0,2.314283E-2,-4.3495812E0,4.1848138E-1,3.1944935E0,2.2060385E-2,-4.8275542E-1,-8.310367E-1,3.1895401E0,3.5563402E-3],"categories":[],"categories_nodes":[],"categories_segments":[],"categories_sizes":[],"default_left":[0,0,0,0,0,0,0,0,0,0,0],"id":82,"left_children":[1,3,5,7,-1,-1,9,-1,-1,-1,-1],"loss_changes":[9.347625E2,1.3543793E2,7.383849E2,4.3586426E1,0E0,0E0,7.3617914E2,0E0,0E0,0E0,0E0],"parents":[2147483647,0,0,1,1,2,2,3,3,6,6],"right_children":[2,4,6,8,-1,-1,10,-1,-1,-1,-1],"split_conditions":[2.00001E0,6E0,2.00001E0,4.92E0,4.1848138E-1,3.1944935E0,2.00001E0,-4.8275542E-1,-8.310367E-1,3.1895401E0,3.5563402E-3],"split_indices":[408,5092,173,5092,0,0,1670,0,0,0,0],"split_type":[0,0,0,0,0,0,0,0,0,0,0],"sum_hessian":[3.6418E4,5.8E1,3.636E4,5.5E1,3E0,2E0,3.6358E4,1.5E1,4E1,2E0,3.6356E4],"tree_param":{"num_deleted":"0","num_feature":"5093","num_nodes":"11","size_leaf_vector":"1"}},{"base_weights":[8.115609E-4,-9.0152855E0,3.3091647E-3,-1.0992283E0,-9.992237E0,3.328887E0,2.1830613E-3,-1.8510624E0,-1.2316718E0,1.033169E0,-1.9873137E-4],"categories":[],"categories_nodes":[],"categories_segments":[],"categories_sizes":[],"default_left":[0,0,0,0,0,0,0,0,0,0,0],"id":83,"left_children":[1,3,5,-1,7,-1,9,-1,-1,-1,-1],"loss_changes":[8.1997284E2,1.7412598E1,8.0352765E2,0E0,8.955566E0,0E0,7.459488E2,0E0,0E0,0E0,0E0],"parents":[2147483647,0,0,1,1,2,2,4,4,6,6],"right_children":[2,4,6,-1,8,-1,10,-1,-1,-1,-1],"split_conditions":[2.00001E0,4.44E0,2.00001E0,-1.0992283E0,5.73E0,3.328887E0,2.00001E0,-1.8510624E0,-1.2316718E0,1.033169E0,-1.9873137E-4],"split_indices":[2236,5092,4115,0,5092,0,4229,0,0,0,0],"split_type":[0,0,0,0,0,0,0,0,0,0,0],"sum_hessian":[3.6463E4,1E1,3.6453E4,3E0,7E0,2E0,3.6451E4,5E0,2E0,2E1,3.6431E4],"tree_param":{"num_deleted":"0","num_feature":"5093","num_nodes":"11","size_leaf_vector":"1"}},{"base_weights":[-8.032281E-3,-1.8367015E0,-5.9273886E-3,8.225977E0,-8.4314635E-3,2.2128751E0,1.1913859E0,1.7367184E0,-1.7673668E-3],"categories":[],"categories_nodes":[],"categories_segments":[],"categories_sizes":[],"default_left":[0,0,0,0,0,0,0,0,0],"id":84,"left_children":[1,-1,3,5,7,-1,-1,-1,-1],"loss_changes":[8.3059875E2,0E0,7.513434E2,5.3859924E1,7.4496185E2,0E0,0E0,0E0,0E0],"parents":[2147483647,0,0,2,2,3,3,4,4],"right_children":[2,-1,4,6,8,-1,-1,-1,-1],"split_conditions":[2.00001E0,-1.8367015E0,2.00001E0,3.93E0,2.00001E0,2.2128751E0,1.1913859E0,1.7367184E0,-1.7673668E-3],"split_indices":[4295,0,5069,5092,4049,0,0,0,0],"split_type":[0,0,0,0,0,0,0,0,0],"sum_hessian":[3.6506E4,7E0,3.6499E4,1.1E1,3.6488E4,2E0,9E0,7E0,3.6481E4],"tree_param":{"num_deleted":"0","num_feature":"5093","num_nodes":"9","size_leaf_vector":"1"}},{"base_weights":[-1.7389767E-2,3.1089249E0,-2.4263097E-2,3.8171813E0,1.228597E0,3.2061017E0,-2.5349565E-2,4.7806695E-2,7.156187E-1,-9.784735E-1,3.3160153E-1,3.189495E0,-4.480376E-3],"categories":[],"categories_nodes":[],"categories_segments":[],"categories_sizes":[],"default_left":[0,0,0,0,0,0,0,0,0,0,0,0,0],"id":85,"left_children":[1,3,5,7,9,-1,11,-1,-1,-1,-1,-1,-1],"loss_changes":[7.8445654E2,1.0562561E2,7.475172E2,8.2370544E1,1.1296188E2,0E0,7.39889E2,0E0,0E0,0E0,0E0,0E0,0E0],"parents":[2147483647,0,0,1,1,2,2,3,3,4,4,6,6],"right_children":[2,4,6,8,10,-1,12,-1,-1,-1,-1,-1,-1],"split_conditions":[2.00001E0,3.14E0,2.00001E0,2.22E0,3.18E0,3.2061017E0,2.00001E0,4.7806695E-2,7.156187E-1,-9.784735E-1,3.3160153E-1,3.189495E0,-4.480376E-3],"split_indices":[4174,5092,4261,5092,5092,0,2920,0,0,0,0,0,0],"split_type":[0,0,0,0,0,0,0,0,0,0,0,0,0],"sum_hessian":[3.6524E4,8E1,3.6444E4,5.8E1,2.2E1,2E0,3.6442E4,6E0,5.2E1,2E0,2E1,2E0,3.644E4],"tree_param":{"num_deleted":"0","num_feature":"5093","num_nodes":"13","size_leaf_vector":"1"}},{"base_weights":[8.624534E-3,1.1245508E1,6.4255046E-3,2.4011114E0,1.1920846E0,-1.3055813E0,9.211657E-3,-2.0315895E0,1.84734E-3],"categories":[],"categories_nodes":[],"categories_segments":[],"categories_sizes":[],"default_left":[0,0,0,0,0,0,0,0,0],"id":86,"left_children":[1,3,5,-1,-1,-1,7,-1,-1],"loss_changes":[8.9467883E2,7.608356E1,7.777164E2,0E0,0E0,0E0,7.314903E2,0E0,0E0],"parents":[2147483647,0,0,1,1,2,2,6,6],"right_children":[2,4,6,-1,-1,-1,8,-1,-1],"split_conditions":[2.00001E0,6.46E0,2.00001E0,2.4011114E0,1.1920846E0,-1.3055813E0,2.00001E0,-2.0315895E0,1.84734E-3],"split_indices":[1483,5092,2195,0,0,0,879,0,0],"split_type":[0,0,0,0,0,0,0,0,0],"sum_hessian":[3.6264E4,7E0,3.6257E4,4E0,3E0,1.3E1,3.6244E4,5E0,3.6239E4],"tree_param":{"num_deleted":"0","num_feature":"5093","num_nodes":"9","size_leaf_vector":"1"}},{"base_weights":[7.3652086E-4,1.4439382E1,-1.2709225E-3,1.080037E0,3.2981975E0,-6.6783385E0,2.2180222E-3,-1.2224867E0,-3.3508283E-1,-8.097027E-1,1.1117633E-3],"categories":[],"categories_nodes":[],"categories_segments":[],"categories_sizes":[],"default_left":[0,0,0,0,0,0,0,0,0,0,0],"id":87,"left_children":[1,3,5,-1,-1,7,9,-1,-1,-1,-1],"loss_changes":[1.0600748E3,1.9213367E2,8.5128015E2,0E0,0E0,4.550305E1,7.562295E2,0E0,0E0,0E0,0E0],"parents":[2147483647,0,0,1,1,2,2,5,5,6,6],"right_children":[2,4,6,-1,-1,8,10,-1,-1,-1,-1],"split_conditions":[2.00001E0,4.37E0,2.00001E0,1.080037E0,3.2981975E0,5.5E0,2.00001E0,-1.2224867E0,-3.3508283E-1,-8.097027E-1,1.1117633E-3],"split_indices":[3215,5092,4891,0,0,5092,313,0,0,0,0],"split_type":[0,0,0,0,0,0,0,0,0,0,0],"sum_hessian":[3.6511E4,5E0,3.6506E4,2E0,3E0,1.9E1,3.6487E4,1.7E1,2E0,3.3E1,3.6454E4],"tree_param":{"num_deleted":"0","num_feature":"5093","num_nodes":"11","size_leaf_vector":"1"}},{"base_weights":[2.080637E-2,1.1425963E1,1.8597344E-2,2.595976E0,2.4061762E-1,8.544585E0,1.5780479E-2,4.528197E-1,1.7706969E0,1.4007658E0,2.21295E-3],"categories":[],"categories_nodes":[],"categories_segments":[],"categories_sizes":[],"default_left":[0,0,0,0,0,0,0,0,0,0,0],"id":88,"left_children":[1,3,5,-1,-1,7,9,-1,-1,-1,-1],"loss_changes":[9.216702E2,2.7169934E2,8.7871674E2,0E0,0E0,1.3093549E2,8.222691E2,0E0,0E0,0E0,0E0],"parents":[2147483647,0,0,1,1,2,2,5,5,6,6],"right_children":[2,4,6,-1,-1,8,10,-1,-1,-1,-1],"split_conditions":[2.00001E0,6.15E0,2.00001E0,2.595976E0,2.4061762E-1,4.62E0,2.00001E0,4.528197E-1,1.7706969E0,1.4007658E0,2.21295E-3],"split_indices":[4214,5092,4137,0,0,5092,4133,0,0,0,0],"split_type":[0,0,0,0,0,0,0,0,0,0,0],"sum_hessian":[3.664E4,7E0,3.6633E4,5E0,2E0,1.2E1,3.6621E4,3E0,9E0,1.2E1,3.6609E4],"tree_param":{"num_deleted":"0","num_feature":"5093","num_nodes":"11","size_leaf_vector":"1"}},{"base_weights":[-9.323317E-3,-3.8297768E0,-2.9698876E-3,-6.8808465E0,-3.5452046E0,3.1445382E0,-4.0255236E-3,-9.010338E-1,-1.3070079E0,-4.0910134E-1,-7.2317266E-1,3.136481E0,-8.6089544E-4],"categories":[],"categories_nodes":[],"categories_segments":[],"categories_sizes":[],"default_left":[0,0,0,0,0,0,0,0,0,0,0,0,0],"id":89,"left_children":[1,3,5,7,9,-1,11,-1,-1,-1,-1,-1,-1],"loss_changes":[8.93058E2,4.967639E1,7.17468E2,1.5192566E0,4.405951E1,0E0,7.138783E2,0E0,0E0,0E0,0E0,0E0,0E0],"parents":[2147483647,0,0,1,1,2,2,3,3,4,4,6,6],"right_children":[2,4,6,8,10,-1,12,-1,-1,-1,-1,-1,-1],"split_conditions":[2.00001E0,4.81E0,2.00001E0,4.62E0,5.15E0,3.1445382E0,2.00001E0,-9.010338E-1,-1.3070079E0,-4.0910134E-1,-7.2317266E-1,3.136481E0,-8.6089544E-4],"split_indices":[2255,5092,4973,5092,5092,0,621,0,0,0,0,0,0],"split_type":[0,0,0,0,0,0,0,0,0,0,0,0,0],"sum_hessian":[3.6812E4,6.1E1,3.6751E4,5E0,5.6E1,2E0,3.6749E4,2E0,3E0,2.2E1,3.4E1,2E0,3.6747E4],"tree_param":{"num_deleted":"0","num_feature":"5093","num_nodes":"13","size_leaf_vector":"1"}},{"base_weights":[1.1372906E-3,3.3777814E0,5.3208173E-6,3.1713386E0,-1.0509816E-3,5.3355217E-1,-1.2409638E-3],"categories":[],"categories_nodes":[],"categories_segments":[],"categories_sizes":[],"default_left":[0,0,0,0,0,0,0],"id":90,"left_children":[1,-1,3,-1,5,-1,-1],"loss_changes":[8.274897E2,0E0,7.295145E2,0E0,7.259645E2,0E0,0E0],"parents":[2147483647,0,0,2,2,4,4],"right_children":[2,-1,4,-1,6,-1,-1],"split_conditions":[2.00001E0,3.3777814E0,2.00001E0,3.1713386E0,2.00001E0,5.3355217E-1,-1.2409638E-3],"split_indices":[1225,0,3564,0,4174,0,0],"split_type":[0,0,0,0,0,0,0],"sum_hessian":[3.6799E4,2E0,3.6797E4,2E0,3.6795E4,7.3E1,3.6722E4],"tree_param":{"num_deleted":"0","num_feature":"5093","num_nodes":"7","size_leaf_vector":"1"}},{"base_weights":[8.27306E-3,-6.146726E0,1.21497195E-2,-5.637687E0,-1.26635E0,-7.8536234E0,1.4959684E-2,-1.1025454E0,-8.137724E-1,-2.9002364E0,-6.1124814E-1,7.502595E-1,1.7579421E-3],"categories":[],"categories_nodes":[],"categories_segments":[],"categories_sizes":[],"default_left":[0,0,0,0,0,0,0,0,0,0,0,0,0],"id":91,"left_children":[1,3,5,7,-1,9,11,-1,-1,-1,-1,-1,-1],"loss_changes":[8.7507574E2,1.0366394E1,8.0981757E2,8.345886E0,0E0,5.066125E2,7.417548E2,0E0,0E0,0E0,0E0,0E0,0E0],"parents":[2147483647,0,0,1,1,2,2,3,3,5,5,6,6],"right_children":[2,4,6,8,-1,10,12,-1,-1,-1,-1,-1,-1],"split_conditions":[2.00001E0,5.26E0,2.00001E0,5.04E0,-1.26635E0,1.4E-1,2.00001E0,-1.1025454E0,-8.137724E-1,-2.9002364E0,-6.1124814E-1,7.502595E-1,1.7579421E-3],"split_indices":[4011,5092,2752,5092,0,5092,5079,0,0,0,0,0,0],"split_type":[0,0,0,0,0,0,0,0,0,0,0,0,0],"sum_hessian":[3.6706E4,2.3E1,3.6683E4,1.7E1,6E0,1.3E1,3.667E4,8E0,9E0,4E0,9E0,3.8E1,3.6632E4],"tree_param":{"num_deleted":"0","num_feature":"5093","num_nodes":"13","size_leaf_vector":"1"}},{"base_weights":[-2.2594381E-2,2.3218203E0,-2.413013E-2,-7.6535974E0,-2.1395674E-2,-1.6638106E0,-1.0508218E0,2.0521479E0,-3.9134403E-3],"categories":[],"categories_nodes":[],"categories_segments":[],"categories_sizes":[],"default_left":[0,0,0,0,0,0,0,0,0],"id":92,"left_children":[1,-1,3,5,7,-1,-1,-1,-1],"loss_changes":[7.68833E2,0E0,7.618829E2,3.4009888E1,7.478622E2,0E0,0E0,0E0,0E0],"parents":[2147483647,0,0,2,2,3,3,4,4],"right_children":[2,-1,4,6,8,-1,-1,-1,-1],"split_conditions":[2.00001E0,2.3218203E0,2.00001E0,9.75E0,2.00001E0,-1.6638106E0,-1.0508218E0,2.0521479E0,-3.9134403E-3],"split_indices":[1804,0,2202,5092,905,0,0,0,0],"split_type":[0,0,0,0,0,0,0,0,0],"sum_hessian":[3.657E4,4E0,3.6566E4,1.3E1,3.6553E4,5E0,8E0,5E0,3.6548E4],"tree_param":{"num_deleted":"0","num_feature":"5093","num_nodes":"9","size_leaf_vector":"1"}},{"base_weights":[1.2267681E-2,-2.854318E0,1.36908265E-2,4.3769526E0,8.784713E-3,5.6745464E-1,9.830649E-1,2.2572572E0,1.23656E-3],"categories":[],"categories_nodes":[],"categories_segments":[],"categories_sizes":[],"default_left":[0,0,0,0,0,0,0,0,0],"id":93,"left_children":[1,-1,3,5,7,-1,-1,-1,-1],"loss_changes":[8.757954E2,0E0,7.8304E2,5.737494E1,7.233152E2,0E0,0E0,0E0,0E0],"parents":[2147483647,0,0,2,2,3,3,4,4],"right_children":[2,-1,4,6,8,-1,-1,-1,-1],"split_conditions":[2.00001E0,-2.854318E0,2.00001E0,3.21E0,2.00001E0,5.6745464E-1,9.830649E-1,2.2572572E0,1.23656E-3],"split_indices":[625,0,3740,5092,1252,0,0,0,0],"split_type":[0,0,0,0,0,0,0,0,0],"sum_hessian":[3.6608E4,3E0,3.6605E4,4.1E1,3.6564E4,2.4E1,1.7E1,4E0,3.656E4],"tree_param":{"num_deleted":"0","num_feature":"5093","num_nodes":"9","size_leaf_vector":"1"}},{"base_weights":[-3.217821E-4,-3.6944916E0,6.478906E-3,-1.594983E0,-5.016841E0,-2.5089653E0,1.5150871E-2,-4.4826418E-1,3.1710285E-1,-1.0177863E0,-6.519008E-1,-4.307033E-1,-1.932201E-1,-1.4894925E0,2.9835245E-3],"categories":[],"categories_nodes":[],"categories_segments":[],"categories_sizes":[],"default_left":[0,0,0,0,0,0,0,0,0,0,0,0,0,0,0],"id":94,"left_children":[1,3,5,7,9,11,13,-1,-1,-1,-1,-1,-1,-1,-1],"loss_changes":[9.171754E2,1.8474286E2,7.9419653E2,9.5378136E1,4.432556E1,4.746582E0,7.814865E2,0E0,0E0,0E0,0E0,0E0,0E0,0E0,0E0],"parents":[2147483647,0,0,1,1,2,2,3,3,4,4,5,5,6,6],"right_children":[2,4,6,8,10,12,14,-1,-1,-1,-1,-1,-1,-1,-1],"split_conditions":[2.00001E0,2.82E0,2.00001E0,2.7E0,3.54E0,2.32E0,2.00001E0,-4.4826418E-1,3.1710285E-1,-1.0177863E0,-6.519008E-1,-4.307033E-1,-1.932201E-1,-1.4894925E0,2.9835245E-3],"split_indices":[561,5092,3355,5092,5092,5092,4715,0,0,0,0,0,0,0,0],"split_type":[0,0,0,0,0,0,0,0,0,0,0,0,0,0,0],"sum_hessian":[3.6489E4,6.7E1,3.6422E4,2.6E1,4.1E1,1.25E2,3.6297E4,2E1,6E0,2.2E1,1.9E1,1.22E2,3E0,1E1,3.6287E4],"tree_param":{"num_deleted":"0","num_feature":"5093","num_nodes":"15","size_leaf_vector":"1"}},{"base_weights":[-1.2506739E-2,1.2444033E1,-1.4242493E-2,3.1278741E0,5.0697565E-1,-4.831187E0,-1.01398565E-2,-7.348082E-1,-1.0136051E0,3.1117465E0,-1.8970972E-3],"categories":[],"categories_nodes":[],"categories_segments":[],"categories_sizes":[],"default_left":[0,0,0,0,0,0,0,0,0,0,0],"id":95,"left_children":[1,3,5,-1,-1,7,9,-1,-1,-1,-1],"loss_changes":[7.890063E2,2.8142047E2,7.218565E2,0E0,0E0,1.4244202E1,7.031356E2,0E0,0E0,0E0,0E0],"parents":[2147483647,0,0,1,1,2,2,5,5,6,6],"right_children":[2,4,6,-1,-1,8,10,-1,-1,-1,-1],"split_conditions":[2.00001E0,9.24E0,2.00001E0,3.1278741E0,5.0697565E-1,7.23E0,2.00001E0,-7.348082E-1,-1.0136051E0,3.1117465E0,-1.8970972E-3],"split_indices":[4239,5092,412,0,0,5092,1668,0,0,0,0],"split_type":[0,0,0,0,0,0,0,0,0,0,0],"sum_hessian":[3.6563E4,5E0,3.6558E4,3E0,2E0,3.1E1,3.6527E4,2.2E1,9E0,2E0,3.6525E4],"tree_param":{"num_deleted":"0","num_feature":"5093","num_nodes":"11","size_leaf_vector":"1"}},{"base_weights":[5.2015204E-3,1.0955842E1,3.3784562E-3,2.6826866E0,1.3924276E0,8.944019E0,1.1563076E-3,1.1513374E0,1.7799141E0,2.2500012E0,-5.4451197E-5],"categories":[],"categories_nodes":[],"categories_segments":[],"categories_sizes":[],"default_left":[0,0,0,0,0,0,0,0,0,0,0],"id":96,"left_children":[1,3,5,-1,-1,7,9,-1,-1,-1,-1],"loss_changes":[7.297175E2,6.727515E1,7.2632666E2,0E0,0E0,2.2248962E1,7.194979E2,0E0,0E0,0E0,0E0],"parents":[2147483647,0,0,1,1,2,2,5,5,6,6],"right_children":[2,4,6,-1,-1,8,10,-1,-1,-1,-1],"split_conditions":[2.00001E0,1.4E-1,2.00001E0,2.6826866E0,1.3924276E0,3.77E0,2.00001E0,1.1513374E0,1.7799141E0,2.2500012E0,-5.4451197E-5],"split_indices":[4941,5092,5076,0,0,5092,3926,0,0,0,0],"split_type":[0,0,0,0,0,0,0,0,0,0,0],"sum_hessian":[3.6621E4,6E0,3.6615E4,2E0,4E0,9E0,3.6606E4,4E0,5E0,4E0,3.6602E4],"tree_param":{"num_deleted":"0","num_feature":"5093","num_nodes":"11","size_leaf_vector":"1"}},{"base_weights":[-8.421658E-3,1.3155847E1,-9.890771E-3,1.7133566E0,2.6465824E0,2.5369327E0,-1.1153415E-2,1.4758316E0,-2.2573194E-3],"categories":[],"categories_nodes":[],"categories_segments":[],"categories_sizes":[],"default_left":[0,0,0,0,0,0,0,0,0],"id":97,"left_children":[1,3,5,-1,-1,-1,7,-1,-1],"loss_changes":[7.078661E2,1.4079224E1,6.9176276E2,0E0,0E0,0E0,6.9050354E2,0E0,0E0],"parents":[2147483647,0,0,1,1,2,2,6,6],"right_children":[2,4,6,-1,-1,-1,8,-1,-1],"split_conditions":[2.00001E0,8.15E0,2.00001E0,1.7133566E0,2.6465824E0,2.5369327E0,2.00001E0,1.4758316E0,-2.2573194E-3],"split_indices":[4894,5092,5001,0,0,0,474,0,0],"split_type":[0,0,0,0,0,0,0,0,0],"sum_hessian":[3.6686E4,4E0,3.6682E4,2E0,2E0,3E0,3.6679E4,9E0,3.667E4],"tree_param":{"num_deleted":"0","num_feature":"5093","num_nodes":"9","size_leaf_vector":"1"}},{"base_weights":[8.205565E-3,2.6952698E0,6.8676095E-3,-2.302997E0,8.382731E-3,1.2295486E0,9.492206E-4],"categories":[],"categories_nodes":[],"categories_segments":[],"categories_sizes":[],"default_left":[0,0,0,0,0,0,0],"id":98,"left_children":[1,-1,3,-1,5,-1,-1],"loss_changes":[7.7896655E2,0E0,7.546865E2,0E0,7.3955194E2,0E0,0E0],"parents":[2147483647,0,0,2,2,4,4],"right_children":[2,-1,4,-1,6,-1,-1],"split_conditions":[2.00001E0,2.6952698E0,2.00001E0,-2.302997E0,2.00001E0,1.2295486E0,9.492206E-4],"split_indices":[1843,0,1505,0,3701,0,0],"split_type":[0,0,0,0,0,0,0],"sum_hessian":[3.673E4,3E0,3.6727E4,4E0,3.6723E4,1.4E1,3.6709E4],"tree_param":{"num_deleted":"0","num_feature":"5093","num_nodes":"7","size_leaf_vector":"1"}},{"base_weights":[-1.9183777E-2,-1.6691414E0,-1.6993005E-2,-7.563053E0,-1.4270245E-2,-1.3877467E0,-6.5795857E-1,3.1141858E0,-2.598509E-3],"categories":[],"categories_nodes":[],"categories_segments":[],"categories_sizes":[],"default_left":[0,0,0,0,0,0,0,0,0],"id":99,"left_children":[1,-1,3,5,7,-1,-1,-1,-1],"loss_changes":[7.809219E2,0E0,7.4531915E2,2.584851E1,7.0455554E2,0E0,0E0,0E0,0E0],"parents":[2147483647,0,0,2,2,3,3,4,4],"right_children":[2,-1,4,6,8,-1,-1,-1,-1],"split_conditions":[2.00001E0,-1.6691414E0,2.00001E0,4.37E0,2.00001E0,-1.3877467E0,-6.5795857E-1,3.1141858E0,-2.598509E-3],"split_indices":[308,0,2243,5092,3771,0,0,0,0],"split_type":[0,0,0,0,0,0,0,0,0],"sum_hessian":[3.633E4,8E0,3.6322E4,1.3E1,3.6309E4,1.1E1,2E0,2E0,3.6307E4],"tree_param":{"num_deleted":"0","num_feature":"5093","num_nodes":"9","size_leaf_vector":"1"}}]},"name":"gbtree"},"learner_model_param":{"base_score":"1.3778175E1","boost_from_average":"1","num_class":"0","num_feature":"5093","num_target":"1"},"objective":{"name":"reg:squarederror","reg_loss_param":{"scale_pos_weight":"1"}}},"version":[2,1,0]}